0.0089103095,0.0054723825,0.05565823,-0.062458787,-0.029029194,0.0020745832,0.04103673,-0.07359122,-0.041323017,-0.0028537111,0.04316891,0.012439689,-0.029174222,-0.0009302398,0.017416617,-0.07338758,-0.028377853,0.0286623,-0.014806697,-0.035088718,-0.030474093,0.03960342,-0.022476299,0.074224256,-0.04922322,-0.002711222,-0.053948883,-0.100189485,-0.024885045,0.026768057,-0.07168079,-0.005437962,-0.0066224355,0.037890267,-0.06788334,0.08086148
0.0097236205,-0.011239186,-0.0032504287,0.00030050412
-0.00015120704
0.4610149
2.0225089
-1.4511951
0.16769542,-0.08165502,-0.00333838,0.1402325,0.13707308,0.07445521,-0.119433194,0.08049248,0.11245119,0.03413613,-0.06250432,0.052617386,0.06705537,0.15090825,0.14682314,0.14393356,0.08237761,0.11063896,0.004821742,0.113264486,0.027501082,0.12166056,0.031121828,-0.02436051,0.09024863,0.31966048,0.07272734,0.035794273,0.063471876,0.069202155,0.28565708,-0.0077317823,0.016510626,-0.034754116,0.05661609,-0.038751528,0.06343672,-0.013085464,0.05282575,0.042842276,-0.052535594,0.23741199,-0.02588098,0.109245144,-0.024347983,0.15518183,0.21428372,-0.03746711,0.12553193,0.17375945,-0.038836446,0.22534409,0.13522448,0.023208315,0.025677027,0.016491447,0.20474991,0.024411887,0.11508706,0.1165746,0.035607234,0.13673851,-0.027159104,0.21383275,-0.173261,-0.02010256,0.029423354,-0.04563457,-0.10959885,-0.019985495,-0.034364656,-0.078167364,-0.0737617,-0.027374422,-0.057894405,-0.006373303,-0.111615345,-0.059836432,-0.06340187,0.04128373,-0.01768802,-0.12242733,-0.19470295,-0.025988176,-0.021164881,-0.13218537,-0.027609736,0.025957743,0.06796337,-0.15067686,-0.05740021,-0.08705437,-0.11229108,-0.21692783,-0.14628522,0.009603626,-0.16133663,-0.1654619,-0.05195208,-0.11944341,-0.05561255,0.079542674,-0.017501056,-0.061110415,-0.027490797,-0.20476659,-0.016421098,-0.18133843,-0.09114646,0.0063544707,-0.066642545,-0.0889009,0.03791742,-0.13987191,-0.113009006,-0.07592162,-0.029608065,-0.10042465,-0.087077625,-0.21143489,-0.16384813,-0.07207488,-0.055276737,-0.029368965,-0.059553936,-0.11455362,0.028674385,-0.10353415,0.13296503,0.07397968,0.10323417,-0.027824147,0.0025966505,-0.06587728,0.17840424,-0.012162958,0.008548323,0.037705652,0.10670317,-0.0043168413,0.2060981,0.11874235,0.09194701,0.011356686,0.16418387,-0.1514558,-0.003911808,0.049993604,-0.1079024,0.024364458,-0.0402532,0.13058574,-0.09016471,0.06699849,0.03358743,0.14418215,-0.0453986,0.05308871,0.29937872,0.15484558,0.16470696,-0.027329866,-0.14542648,0.055278618,-0.070282854,0.16270025,0.02636489,-0.0015322608,0.03367083,0.09186351,-0.07487107,-0.024732782,0.09012041,0.009532784,0.072206385,0.02407262,0.033153694,0.054151244,0.04739757,0.03031519,0.026013864,0.04701129,0.101363614,0.102860115,-0.05270541,0.0035069836,0.18373296,0.1441864,0.0062200166,0.099618144,0.20914316,-0.009175528,0.20169333,0.09291221,0.12601681,0.007721218,0.28433043,0.12719354,0.04770163,-0.2477259,0.03168588,-0.080115706,-0.011715353,-0.13780853,0.15781517,0.19654877,-0.33162344,0.14723098,0.24122772,0.057954334,-0.017229665,0.05523878,-0.14556451,-0.106366165,-0.034157958,-0.031865317,0.0025401157,0.13770576,0.013196388,-0.10970788,0.12587848,0.070537314,0.30264485,-0.04735338,0.16172884,0.14204045,0.013916157,0.005969214,0.2606319,0.0024090288,0.05502719,0.08606891,0.15925531,0.060889963,0.030468985,0.1555763,0.11574779,0.18241493,0.03999211,0.16241156,0.06465741,0.04265397,0.117057994,0.18168108,0.11798644,0.14985664,-0.14107914,-0.1538946,0.0482316,-0.03815366,-0.033327896,-0.114036456,-0.11962096,0.08275688,-0.15581709,0.071829565,0.16741715,0.04254196,-0.016440585,0.21925226,0.18315671,0.06418411,-0.07415733,0.014470581,0.045947276,0.13581163,0.07464585,-0.048716962,0.002597991,0.18026277,0.1931059,0.21169207,0.14419255,0.12333959,0.08370024,0.21112272,-0.067170314,0.1488502,-0.030194294,0.011844778,0.09608906,0.21125664,0.055697497,0.024042502,0.08344185,0.14028397,0.17565651,-0.029113427,0.0006015312,0.030956533,0.08106496,-0.029793449,0.14952445,0.038016807,0.06910666,0.02445978,0.02502414,0.20202206,0.011079518,0.033679016,-0.07658431,0.1604642,0.15135895,-0.058834907,0.044497754,0.16926984,0.12682843,0.18371323,0.14533336,0.06526077,-0.015154415,0.012280305,0.20655608,-0.011257099,-0.023954332,0.07678429,0.02968456,0.0890801,-0.09775754,0.1751024,-0.13362034,-0.13067386,-0.05479776,-0.07560983,-0.14769337,-0.04132638,0.050604697,0.019458396,-0.08000173,-0.14976735,-0.10119958,-0.058255047,-0.06891,-0.1369139,-0.12690192,0.012213639,0.027358245,-0.14696635,-0.17190832,-0.07702451,0.03547323,-0.11685865,-0.059967488,-0.051120438,-0.025294147,-0.21881741,-0.030523663,-0.030818306,-0.15298158,-0.13126333,-0.049705073,-0.021046843,-0.09111057,-0.21061835,-0.14716399,-0.09096474,-0.06165059,0.079462655,0.045685466,-0.059031427,-0.05079756,-0.21336214,-0.13792698,-0.2745958,-0.0838645,-0.081937045,-0.019747037,0.021359662,-0.0034556354,-0.24508893,-0.14295417,-0.0881277,-0.09663011,-0.083211996,-0.109283276,-0.25220847,-0.15249321,-0.009892338,-0.00036273059,-0.04787666,-0.061361395,-0.21334195,-0.01581723,-0.05678394,0.108598985,0.17655674,-0.10403015,0.014698588,-0.06346564,-0.14091875,0.18366769,-0.019113548,-0.020522855,0.12902024,0.26604617,0.09190743,0.23140088,0.02930884,0.09793433,-0.057756,0.24542378,-0.025028495,0.047030833,0.070649914,-0.16683838,-0.06294281,-0.037182547,0.070330895,0.056143533,-0.038234536,0.052280605,0.08820199,0.08605086,-0.029004766,0.1755181,0.14493904,0.10707031,-0.021747118,-0.14333151,0.116736926,-0.011945032,0.21924435,0.068234995,-0.0070250304,0.12788527,0.12285119,0.053208392,0.025374154,0.10196412,-0.053342417,0.0132884225,-0.08386969,0.027547445,-0.0202491,0.101064086,-0.08659963,-0.0022214926,0.0402139,0.13670397,0.13436946,-0.035841472,0.096222125,0.11188143,0.19174871,0.002218247,0.17287073,0.22177166,-0.075821005,0.20082602,0.12352716,0.12844221,-0.009059451,0.32600778,0.13227609,0.095162354,-0.23412906,0.023385711,-0.0803438,-0.09298574,-0.16771872,0.1597021,0.20506622,-0.33138448,0.06123064,0.16739121,0.09007587,0.021237684,0.14103825,-0.048754577,-0.113951445,-0.0065257717,-0.13018572,0.14333628,0.116535544,0.021231925,0.022481203,0.069985084,0.26051813,0.1490677,0.053130414,0.08613109,0.04423348,0.1129098,-0.099399716,0.2648683,0.027514694,-0.007427805,0.072433025,0.16736098,0.05464521,-0.0066181193,0.14924686,0.08900294,0.22867686,0.046555616,0.17717452,-0.042886138,0.1363799,0.100344375,0.19466107,0.11861479,0.026254915,-0.106285915,-0.12874931,0.0080115115,-0.1226273,-0.18026766,-0.020209825,-0.10916239,0.014297607,-0.26368657,-0.01465078,0.17181598,0.038675033,-0.016226165,0.23538977,0.12869279,0.074612655,-0.0029249906,-0.0208888,0.12748362,0.12706476,-0.06394583,0.053791005,0.051761743,0.20007199,0.21118024,0.22116208,0.15496913,0.1151181,0.20335256,0.20084175,0.03610215,0.22656626,0.0923694,0.062260922,0.035713613,0.3355083,0.10119065,0.08216886,-0.034245662,0.12863132,0.15124552,-0.038838986,-0.050110463,0.03400626,0.15556823,-0.025859758,0.05864968,0.01548923,-0.061113983,0.026878044,0.0072125397,0.13375305,-0.013331449,0.03349,-0.098352715,0.11348471,0.21168305,0.062562235,0.113125876,0.17188905,0.03902698,0.23003659,0.046994384,0.09806994,0.054127548,0.06380961,0.26505902,-0.01567328,0.032850396,-0.012878297,0.025339777,0.14394422,0.026164535,0.25678796,-0.23627184,-0.033493284,-0.025614934,-0.116593085,-0.12381575,-0.099425204,-0.014897811,-0.14257917,-0.17967483,-0.10867529,-0.11816088,-0.049653675,-0.068843275,-0.09138152,-0.09822944,-0.029340953,-0.060434002,-0.12984067,-0.22837251,-0.14441496,-0.11222665,-0.2557517,-0.116517566,0.05939722,-0.0777594,-0.2526555,-0.0034026643,-0.06611932,-0.10154697,-0.22963169,-0.09274547,0.0015371745,-0.029905856,-0.09922139,-0.02911732,-0.11101896,-0.06297393,0.10881244,0.06020732,0.021396536,-0.054599002,-0.28572303,-0.11708536,-0.1325422,-0.050072063,-0.12021573,-0.17087637,0.023820953,-0.011756528,-0.17532282,-0.09521781,-0.12629466,-0.11334486,0.03999179,-0.1203431,-0.25874883,-0.14608759,-0.106784865,-0.1511936,0.035081606,-0.065261565,-0.100177445,-0.021153698,-0.1267001,0.12952042,0.16498992,0.005613445,-0.024728255,0.0103117395,-0.11206207,0.14379543,0.0577217,-0.108834215,0.011097568,0.16032349,0.011420635,0.20491795,0.11282334,0.13203894,-0.02461642,0.20839453,-0.013625559,0.08793754,-0.013341067,-0.13922901,-0.0030452171,-0.0055749053,0.11714377,-0.081766054,-0.06603504,0.048021663,-0.016577875,0.034138255,-0.043067668,0.2781587,0.17654589,0.074928135,0.066481315,-0.124117084,0.1214683,0.0035419967,0.22528814,0.0576215,0.094738886,0.081488654,0.08614512,0.07481138,-0.04240092,0.06048557,-0.05121796,0.056364592,-0.111570254,0.045905896,0.036137506,0.0709296,-0.016580544,-0.026779165,0.15227123,0.12755087,0.146014,-0.10249495,0.05062844,0.08550236,0.117839806,0.0062106065,0.04433516,0.20800517,0.024507541,0.16367793,0.07770923,0.06541974,0.11433181,0.3132366,0.07184947,0.065863624,-0.16895014,0.04032673,-0.16747275,-0.023049055,-0.054713383,0.19236894,0.24776186,-0.3243101,-0.009600112,0.21586365,-0.015959643,-0.07672715,0.038575504,-0.13910186,-0.040158167,-0.0015230556,0.043106098,0.021977175,0.15512283,-0.02242173,-0.058872443,0.03789484,0.19941889,0.24436064,-0.00805527,0.11565839,0.17946048,0.11709855,0.0036644586,0.13413817,0.037892457,0.06177497,0.08174971,0.1205338,0.05621871,0.058879763,0.1725577,0.051093236,0.23926271,0.0044142716,0.114341676,0.028623363,0.18587825,0.12976593,0.17522816,0.10633904,0.08284232,-0.10665744,0.0011553784,0.09969422,-0.029536242,-0.11515201,-0.012724513,-0.034868494,0.14698958,-0.23014697,-0.018955026,0.14228229,0.031813804,0.05708628,0.15261275,0.04301934,-0.000689431,0.059816517,0.017250093,0.05566623,0.059159126,0.013769033,-0.0781688,0.12179556,0.18345667,0.13754915,0.15559343,0.14872575,0.15098241,0.06601389,0.12795705,0.013882075,0.1207027,0.041973174,-0.010594077,0.14580224,0.3025341,0.14210385,0.039671972,0.09617968,0.12404207,0.054509923,-0.06863067,0.020238139,0.055452887,0.11094881,0.0064771567,0.05454062,-0.06500635,-0.047664225,0.07967069,0.06004784,0.20466013,0.09313297,0.10398009,-0.0006966111,0.14217716,0.20319046,-0.04630119,0.06590123,0.12690717,0.041195713,0.22463211,0.20230813,0.12770422,-0.066166736,0.049008623,0.16584815,-0.06219176,-0.12307893,-0.05552708,-0.014060805,0.094410054,0.021008873,0.18706615,-0.17292483,-0.11541145,-0.022440413,-0.09559419,-0.106571026,-0.03908617,0.03635909,-0.12078171,-0.084242836,0.069606446,-0.114795424,-0.042660777,-0.11080919,-0.16517556,-0.1449881,0.13793592,0.060848035,-0.1193175,-0.19432208,-0.03214128,-0.042609718,-0.12190794,-0.009201921,0.041034922,-0.043661136,-0.18750969,-0.12587173,-0.15666483,-0.1348982,-0.15873142,-0.12596498,0.032013968,-0.061756544,-0.12123323,-0.088518895,-0.11479647,-0.19950509,0.05137503,-0.038401518,0.046447895,-0.117287435,-0.2613147,-0.0127745,-0.17692828,0.0009285553,-0.09127457,-0.08315987,0.03288166,-0.00785576,-0.19799908,-0.08021356,-0.12410845,-0.13806449,-0.0038621377,-0.10909695,-0.20020236,-0.19587532,-0.10837454,-0.064101756,0.009341968,-0.09159527,-0.13293786,-0.033584103,-0.12237366,0.05291926,0.18177168,0.022373239,-0.0010129183,0.019799996,-0.031489313,0.1160391,-0.0025689767,-0.0419578,0.10243603,0.20482935,0.11981265,0.1943593,0.14985973,0.27099064,-0.039625242,0.15947422,-0.091102205,0.09189371,0.091895774,-0.16353321,-0.15916896,-0.04274208,-0.014875455,-0.02729072,-0.024978003,0.049128115,0.081880234,-0.08210268,0.019968605,0.28515798,0.1613268,0.20718418,0.0892717,-0.12740968,0.09351064,0.026939,0.14939709,0.07618719,-0.02227445,0.15727405,0.20734464,0.062419187,-0.031199172,-0.025610015,-0.095065095,0.016348658,-0.08584467,-0.03393623,-0.016313024,0.068149276,0.033456378,0.0130869495,0.04691265,0.16393155,0.035817742,-0.08103778,0.06940504,0.092835,0.17110561,0.06654921,0.07771857,0.1957241,0.0471477,0.23168144,0.043011215,0.07775254,-0.11413653,0.37857717,0.10040102,0.19876221,-0.2202319,0.023629066,-0.0074186004,0.024538942,-0.0828384,0.073790655,0.23268019,-0.22695346,0.10108935,0.13145952,0.09882786,0.045485113,0.061993934,-0.20393282,-0.06260738,0.018375408,-0.16027609,0.038577016,0.05150191,-0.007719825,0.039876238,0.049046863,0.2743377,0.20349866,0.058452737,0.16868389,0.046138,0.066996925,-0.060932685,0.11900583,0.0019687216,0.108888745,0.018694317,0.16759872,0.09525685,0.07047054,0.17915235,0.13757245,0.20381333,-0.038227137,0.11578169,0.050403044,0.16455749,0.13198757,0.09446882,0.11364888,0.03461265,-0.12004896,-0.042492624,0.031664,0.0066428008,-0.0017332503,0.079192474,-0.16507398,0.048161577,-0.19302233,0.121249616,0.111570746,0.112939306,0.15774012,0.049001824,0.06943882,0.08732195,-0.08122389,0.0899533,0.04128166,-0.022152923,-0.15375161,-0.05896472,0.11689437,0.08626258,0.12609202,0.18917137,0.12193483,0.10857809,0.1297793,0.17896187,0.034804452,0.066068634,0.101353146,0.06885756,0.22831212,0.3117581,0.19881736,0.012026998,0.06705905,0.06740613,0.264267,-0.033057947,-0.0044140047,-0.05082883,0.20000137,0.012576667,0.09355016,-0.10314961,-0.0022077137,0.09412266,0.045675207,0.23149674,-0.090650246,0.12091506,-0.047952022,0.18990877,0.20212455,-0.0455284,0.046636347,0.16453137,0.09932834,0.22357982,0.12761585,0.20575023,-0.010679363,-0.0049377,0.23808913,0.032498192,0.018095288,-0.06870602,-0.0552617,0.027223352,-0.12267293,0.2682222,-0.16514255,-0.083568044,-0.11117467,-0.093348034,-0.139409,-0.0122491075,0.007255999,-0.040845394,-0.15770528,-0.03341226,-0.040301226,0.031367324,-0.1089691,0.0356399,-0.083022326,-0.030267911,-0.015113847,-0.062498238,-0.13802674,-0.07298691,-0.032056216,-0.16685832,-0.121360786,-0.016956188,-0.03775871,-0.23617268,-0.03555794,-0.065612845,-0.08060618,-0.12128538,-0.13825993,-0.004967181,-0.048352856,-0.2713669,-0.07573642,-0.10778556,-0.12604001,-0.0046518007,0.020642038,0.008790264,-0.0757182,-0.17054172,-0.01627284,-0.09004596,-0.09097273,-0.16335376,-0.087715246,-0.09027059,-0.08317595,-0.27498424,-0.117263965,-0.14968865,-0.10224132,-0.032103285,-0.0950005,-0.16089116,-0.19125059,-0.02870957,-0.12076156,-0.038345117,-0.053667955,-0.09679841,0.007917457,-0.11505075,0.089321494,0.104236834,0.017143618,0.03365519,-0.09933515,-0.087861955,0.16940697,0.05755542,-0.08170898,0.12209376,0.17743988,0.061700474,0.17600268,0.046599355,0.16839288,0.010429349,0.24456285,-0.031466316,-0.006450452,0.13031073,-0.13253729,-0.037552312,-0.00943291,0.055592917,-0.18781248,0.08423778,0.2011186,0.087444656,0.044374578,0.055583876,0.1679069,0.14329405,0.13889368,-0.01973817,-0.17156354,0.11837913,-0.06914102,0.14592744,0.06035765,0.007964006,0.06553306,0.059794787,-0.0055663073,-0.013364343,0.040001623,0.020408256,0.14306848,-0.08107092,0.06534426,0.024220992,-0.03240513,-0.02463142,-0.0035580406,0.10612975,0.11653161,0.12741712,-0.13326511,0.06054946,0.13612132,0.080732495,0.082367875,-0.026392838,0.22763199,-0.043869153,0.1924126,0.050025146,0.20273553,0.033923488,0.2795992,0.10744966,0.088270016,-0.17770821,-0.0049685133,-0.15056205,0.06659809,-0.18145175,0.109753005,0.14550029,-0.32894558,0.110870354,0.14400956,0.047183707,0.082831465,0.112484194,0.0025353879,-0.019530948,-0.034161676,-0.06623402,-0.014875216,6.0363014e-05,0.05139138,0.0024160738,0.058204476,0.18344975,0.25577155,-0.11948522,0.025387686,0.06677718,0.110386975,-0.0038283174,0.27884403,0.07115998,-0.0051684855,0.066022895,0.20012362,0.13243058,0.11477831,0.15735392,0.12252231,0.17547525,-0.0054212064,0.030963643,-0.053250607,0.112529784,0.14412469,0.18815945,0.016605176,-0.03290173,-0.090891495,-0.06498622,0.053356495,-0.0013884094,-0.057938192,-0.024705743,-0.23248343,0.12824295,-0.10330779,-0.04584061,0.12941407,0.07243224,0.11634595,0.1316347,0.107257314,0.0986348,-0.030978344,0.025950922,0.15308261,0.02665714,-0.03135917,-0.087135054,0.12603028,0.0043513086,0.1652811,0.16784337,0.10280664,0.1656731,0.105550505,0.1502203,0.094842725,0.08457915,0.15655804,0.10215718,0.090029836,0.23745151,0.14715482,0.056337476,0.20328985,0.07149946,0.03610397,0.024246596,-0.043447416,0.13386424,0.09069464,-0.019624785,0.07974355,-0.065172516,-0.01330293,0.11839546,-0.08693306,0.2710366,-0.10272315,0.0026922473,-0.06641375,0.11423199,0.07364299,-0.07768509,0.05510522,0.09424864,-0.014514025,0.33361754,0.2086128,0.21004885,0.06262969,-0.0014575652,0.19652109,-0.021084847,0.1273564,0.041707784,-0.008710147,-0.07356465,-0.052061845,0.18316543,-0.15991352,-0.16900657,-0.07830823,-0.06983294,-0.10736769,-0.054924812,-0.031257737,-0.03808518,-0.049533594,-0.05172912,-0.06154494,0.019294305,0.019630648,0.024855535,-0.109491274,-0.009800675,0.0893973,-0.1894956,-0.14319202,-0.018920485,-0.023791438,-0.099622,-0.04183449,-0.10433502,0.03782558,-0.12908624,-0.12377856,-0.0984573,-0.18242764,-0.12844802,-0.059132263,0.0035662905,-0.09710957,-0.091733634,-0.08211713,-0.1775536,-0.04236916,0.038894765,0.03441446,0.047087643,0.012252682,-0.06774745,0.05271415,-0.089714974,-0.07312408,-0.074284,0.04891694,-0.060962155,-0.10491248,-0.2742282,-0.022118665,-0.071922414,-0.20876434,-0.10190946,0.016936328,-0.14417306,-0.11394936,0.02533991,-0.20050141,-0.023406222,-0.10171946,-0.1011228,0.08316557,-0.15333654,0.11156702,0.05843321,0.045771796,-0.017803961,0.092355214,-0.05819831,0.14768934,-0.026224988,-0.08714986,0.050436333,0.1655242,0.06648122,0.1899485,0.0743538,0.11933819,-0.0034918769,0.279524,0.041599948,0.15184106,0.08945414,-0.14969365,-0.0566293,-0.018068532,-0.05740194,-0.099518925,0.012364894,0.19639382,0.18219681,0.06950535,0.10194914,0.13146228,0.07178202,0.18992008,0.038311757,-0.12177196,0.07560956,0.018420298,0.1820387,0.15776223,-0.10849168,0.23160584,0.16603838,0.032835227,-0.05733684,0.03924561,-0.08432613,0.03404201,-0.061149754,0.041028805,0.05618565,0.12522876,-0.0604503,-0.08944907,0.14050373,0.09913138,0.15125671,0.04911428,0.07503923,0.13934106,0.12366375,0.05107151,-0.10903677,0.17480268,0.10644994,0.22511029,0.020534419,0.10680716,0.03417046,0.35474268,0.030112134,0.0628247,-0.19707,0.011032432,-0.12558699,-0.010948105,-0.071871445,0.2854582,0.26302794,-0.29616797,0.11994667,0.15665655,0.04922735,0.029710801,0.08690431,-0.10533933,0.049319986,-0.06265074,-0.14071655,-0.083266065,0.15546282,-0.16198812,-0.0068251216,0.008504897,0.13005108,0.3018778,0.021703621,0.17220764,0.048036985,0.11703028,0.09463668,0.19502681,0.0152088795,-0.09170602,0.17561296,0.18682729,0.123548366,0.22364187,0.24890018,0.033300288,0.23179808,0.18214917,0.019551512,-0.091078386,0.11549366,0.05484466,0.16982043,0.040544458,-0.057528727,-0.13901144,-0.0077599376,0.0861068,0.0030464204,-0.0840019,-0.03382005,-0.10467032,0.19755758,-0.09725058,-0.13380548,0.09307338,-0.022304088,-0.032780055,0.15529232,0.09302148,0.16925679,-0.031695846,0.042501282,0.23227699,0.099131525,-0.008333178,-0.08454445,0.17882302,0.081935704,0.14030509,0.16924474,0.013379671,0.2654048,0.028895136,0.06805913,0.06532387,0.125567,0.049126495,0.076462075,0.1437233,0.33438525,0.1487095,0.0070286947,0.2556868,0.052607324,0.008915085,0.054515075,0.026535027,0.20904288,0.16434608,-0.10902505,0.069365546,-0.0028971145,-0.037670624,0.040172692,0.03729683,0.15742663,-0.011387333,0.051045004,-0.01935592,0.21646787,0.11285587,0.05560994,0.18618031,0.13782528,0.043491527,0.29086083,0.11240609,0.19804968,-0.016799057,-0.0175944,0.18870007,-0.070892274,0.12906735,-0.046255417,-0.0003308158,-0.07291612,-0.12425704,0.28137672,-0.08104924,-0.17632423,-0.034268938,-0.15385863,-0.07281967,-0.1258776,-0.035756454,-0.008085195,-0.035587754,-0.057407867,-0.031371742,-0.041243125,0.041149672,0.056296635,-0.13572894,0.0203285,-0.031218683,-0.116787694,-0.3210108,-0.060560096,-0.010858316,-0.12633707,-0.09477349,-0.056557216,0.035168312,-0.1509012,-0.062244236,0.019571468,-0.1682749,-0.09624998,-0.030994585,-0.001461907,-0.15175918,-0.120804854,-0.11457466,0.011100527,-0.0762551,0.079413526,-0.07928287,0.013622463,0.026340641,-0.22275843,0.027952015,-0.17484365,0.026759567,-0.13578542,0.06433811,-0.093508884,-0.026893,-0.24304746,-0.106581956,-0.2228018,-0.12951468,-0.14720973,-0.041518874,-0.22986077,-0.12410078,0.03753474,-0.14593351,0.0040760674,-0.017831892,0.08525505,0.024451269,-0.27074608,0.061373148,0.12563281,0.0006512199,0.0012889453,0.015163576,-0.0017037784,0.16273117,0.01862437,0.05027614,-0.016706038,-0.038780984,0.026616907,0.19588503,0.025407247,0.103273,0.06176773,0.15594918,0.0041554,0.08872389,0.0049351715,-0.08513599,0.14524093,0.019040965,0.076803766,-0.007509322,0.049739037,0.21888028,0.12584133,0.10811209,0.07292722,0.09614423,0.022855444,0.18909432,-0.0018434846,-0.118399754,0.1721365,0.031526186,0.103297494,0.085010044,-0.046662148,0.102514684,0.13034064,-0.0083035,-0.046575453,0.09914851,-0.05850998,-0.1523654,-0.06475613,0.13894762,0.1732077,0.08298621,-0.083941385,-0.0331666,0.14899766,0.23083648,0.12795153,-0.043600485,0.013713454,0.01735497,0.14216997,0.019056104,-0.18556981,0.11607219,0.13310033,0.20506749,0.063728794,0.016204594,-3.581916e-05,0.37023407,0.056276936,-0.020372448,-0.1865854,0.006873378,-0.062818125,-0.0398711,-0.18055013,0.14175059,0.3063971,-0.09091438,0.091413364,0.16824193,0.039113164,-0.13163048,0.11965916,-0.066238075,-0.04623825,-0.038760956,0.0022104771,-0.12066331,0.09680044,-0.051277503,-0.042895943,0.009966699,0.1323231,0.3074543,0.06870515,0.12088206,0.06113663,0.13994965,-0.079969645,0.110300966,0.092243075,0.0011227209,0.05485905,0.22088455,0.06634918,-0.06466735,0.119889304,-0.011721318,0.25273672,0.11693751,0.106419526,0.022237135,0.08205407,-0.054223057,0.24602653,-0.006711856,0.09118886,-0.053276367,-0.07561204,0.010385101,0.05476352,-0.10489597,0.049469966,-0.07522529,0.09726634,-0.22126147,0.02018263,0.09526121,0.081551805,-0.027207954,0.1322379,0.08076707,0.08474084,0.035196096,0.16474117,0.12459981,0.050865225,-0.12364897,-0.015547491,-0.0038819753,0.14095739,0.1078457,0.16217284,0.1031291,0.23557656,0.09408475,0.111413546,0.019095367,0.18976487,0.14283922,0.034731437,0.1904323,0.24878398,0.19097652,0.030367108,0.26404938,0.049502168,-0.009632542,-0.009867887,-0.047995593,0.117691256,0.10939602,-0.07676981,0.07613185,-0.041929472,0.025143722,0.1595587,-0.081040144,0.33600602,-0.025779245,0.13089758,-0.019420136,0.21241918,-0.052649952,0.0030299076,0.14740708,0.15756284,0.06629249,0.1872822,0.09429493,0.24576375,-0.03380132,-0.019994017,0.28256175,0.016414385,-0.06498052,0.16701421,-0.08813726,-0.03277039,-0.00033755193,0.2819735,-0.19995455,-0.06650411,-0.116991706,-0.10614351,-0.20458844,-0.10329538,0.07342541,-0.05677295,-0.09009403,-0.03176625,0.017655844,-0.06335888,0.004829115,0.110890575,-0.07490821,-0.060716078,0.073799685,-0.14620581,-0.23212625,-0.122589104,-0.045744907,-0.17996792,-0.09125562,-0.028509261,0.08363481,-0.18092783,-0.14083654,-0.04859601,-0.19322117,-0.1817368,0.14042795,-0.02092034,-0.09981504,-0.12772688,0.023756944,-0.13891491,-0.1493549,0.04299422,-0.028887326,-0.001996859,-0.022987287,-0.2648824,0.023158269,-0.1458847,-0.119669184,-0.18733022,0.0070049423,-0.098721944,-0.014671659,-0.15108623,-0.080940865,-0.10337662,-0.1743448,-0.2081527,-0.06593717,-0.27810964,-0.157366,-0.013798043,0.061831307,-0.04602227,-0.0068796217,0.04978471,0.09020845,-0.23961519,0.069347195,0.230182,0.0024725082,0.06374305,0.06275191,-0.06740172,0.04720738,-0.012070796,-0.095809065,0.11963306,0.057303187,0.13546315,0.21590719,-0.10188553,0.0007646867,0.10298332,0.2853727,0.091244,-0.014517854,0.030401027,-0.1022038,-0.03280647,0.18244818,-0.06861888,-0.05119314,-0.024642637,0.21807876,0.03961412,0.17704655,0.07828569,0.008664493,0.18959296,0.1786184,0.057222754,-0.13447681,0.108297415,0.12577759,0.120243646,0.1239871,0.11856247,0.0117369555,0.27961212,-0.05308851,0.013809523,0.1730232,-0.0065630334,-0.33659887,-0.110449746,-0.05410429,0.12990414,0.12432832,-0.2567708,-0.10582254,0.20519264,0.2959537,-0.066564515,-0.019958716,0.10393881,0.14713085,0.09329878,-0.07337374,-0.12107222,0.13529252,0.057851642,0.38233572,-0.049243793,0.08622591,-0.033306666,0.16336527,0.019055609,0.18017955,-0.43012267,0.21139865,-0.06522663,-0.041230824,-0.35642654,0.20250762,0.40920526,-0.048123255,-0.0040830486,0.06839935,0.14373791,-0.048851795,-0.024950014,-0.048108406,-0.063294366,-0.0063487478,0.052033093,-0.049867593,0.10001717,0.07488683,0.020883683,-0.03178376,0.30818003,0.12962426,-0.068620846,-0.003093054,0.030668767,0.05313515,-0.21022278,0.015264095,0.089369595,0.022209523,0.09073739,0.40544033,-0.092065044,-0.3220576,-0.1836352,-0.050123986,0.04456926,0.42570373,0.18484133,0.02311378,0.04123718,0.061240695,0.46591467,0.19526874,0.10694553,-0.23822607,-0.0034903875,0.1164014,-0.16831683,-0.16355595,-0.12546134,-0.11314168,0.06664614,0.023945265,0.27015603,-0.009103525,0.09229416,-0.009285667,0.1967133,0.10780176,0.17526162,-0.02806583,0.06166508,0.08730925,0.018841252,-0.0047022346,0.10622612,0.12976831,-0.03443765,0.081344746,0.2670782,0.16144761,0.16899708,0.11724251,0.1808994,0.012004503,0.09240293,0.063834816,-0.03616232,0.32060152,0.3191625,0.078246236,0.047396317,0.22862346,0.09155382,0.127033,-0.043036953,-0.046805833,0.16486625,0.09838084,-0.011653065,0.20224352,0.022344122,0.08070552,0.048318975,-0.14485742,0.31483126,0.11908566,0.20244712,0.0011619197,0.14738923,-0.13306807,0.04162077,0.21109606,0.07734413,-0.07476731,0.09517521,0.091574214,0.24555622,0.17377447,-0.10654191,0.18773831,0.034213196,0.031329185,-0.06116219,-0.0013726861,-0.074370585,-0.114845276,0.30564317,-0.09078052,-0.12027791,-0.036385793,-0.1818179,-0.16912045,-0.026771946,0.032904204,-0.0347182,0.0156237045,-0.119771466,-0.11845079,-0.07932721,0.069691285,0.17584974,-0.051479697,-0.049268015,-0.09229358,-0.18045394,-0.1924813,-0.101527326,-0.0034056446,-0.1101144,-0.026305115,0.055746377,0.0058983914,-0.2080356,-0.06845563,0.05269862,-0.21844187,-0.16877416,0.03933837,-0.116891295,-0.111086085,-0.24280731,-0.09673723,-0.11028782,-0.15739562,0.17174526,0.03682449,0.027440403,0.1671801,-0.28247777,-0.047693875,-0.21374847,-0.15322638,-0.15112206,0.22642677,-0.084066726,0.04998534,-0.13680212,-0.12438702,0.09607365,-0.008792489,-0.15090187,-0.13024127,-0.14762092,-0.1806631,0.060415838,-0.094287306,0.053993426,-0.17354627,0.082171366,0.23500773,-0.1096285,-0.20066468,0.2164553,0.06106968,0.06531796,-0.011150302,-0.013659413,0.12249936,0.06345697,-0.206365,-0.055094745,0.082012944,0.18194109,0.1888293,-0.34561855,0.021267662,0.15283431,0.36626485,-0.01664407,0.046864115,0.035662223,-0.17091049,0.020282177,0.13263446,-0.092742346,0.05032248,0.11658789,0.17500368,0.21008536,0.2687445,-0.103341036,0.09117822,0.30203065,0.16930296,0.098395385,-0.17388207,0.26706892,0.0047597294,0.06493236,0.13389122,-0.004847799,-0.1432021,0.1540083,-3.98295e-06,-0.05336661,0.082431965,0.053186692,-0.5264196,-0.24076943,0.03770546,0.16378324,0.06290054,-0.36287895,-0.24278615,0.12805653,0.44851106,-0.01706926,0.014394924,0.07893426,0.17850101,0.14149345,0.061925057,-0.14353675,0.14513193,0.040981606,0.46481785,0.034352083,0.011468517,0.07001467,0.13803035,0.06890679,0.27468643,-0.34006625,0.24374694,-0.072333366,-0.18388392,-0.25732616,0.09610685,0.6479792,-0.34286302,-0.029874139,0.13515505,0.14123842,0.052658156,0.08388018,-0.044188842,-0.0889388,0.059940763,0.19407949,-0.035052545,0.18281229,0.17597657,-0.082153454,-0.0259659,0.40074927,-0.083300315,-0.32700157,0.20295958,-0.19869836,0.22858942,-0.24712972,0.29897252,0.11029026,-0.030233974,0.028927965,0.39620656,0.088061936,-0.32448038,0.14424711,-0.061282318,0.18042076,0.366206,0.32283267,0.034345336,0.04752609,0.3279322,0.49156424,0.320618,0.27946502,-0.51395637,0.15520461,-0.038168147,-0.15333663,-0.16410609,-0.032221153,-0.47158942,-0.097001076,-0.19600074,0.06857927,-0.082308,0.01701169,0.06992384,0.20402724,0.17902964,-0.04834491,-0.09201747,0.03465119,0.073511004,0.03071594,-0.015432398,0.036893867,0.100711554,-0.2807794,0.13319656,0.23710933,0.21990809,0.1409043,-0.005922055,0.17646784,0.016644208,0.153684,0.14027748,-0.119892165,0.22648022,0.31463638,0.037518144,0.0536245,0.30041802,0.073738135,0.17301202,0.07943895,0.09655335,0.22196402,-0.041777965,0.05687742,0.21422434,-0.053840745,0.016421756,0.04588155,-0.17670484,0.23160715,0.13291967,0.14169258,0.08102412,0.1399793,-0.2584035,-0.016184993,0.08353661,0.24767852,0.016509632,0.04946549,-0.099153124,0.19874354,0.15359141,-0.18610904,0.17912288,-0.08913332,0.07059143,0.062310226,0.11887637,-0.103555836,-0.122746415,0.25846827,-0.11499449,-0.13126282,-0.093294926,-0.19902489,-0.1252793,-0.029057266,-0.08028888,-0.041732747,-0.060215615,-0.088987485,0.0032844124,-0.06483473,0.0268306,0.31430092,0.014159516,-0.012684415,-0.06260492,-0.15560406,-0.20318203,-0.10748715,-0.048659895,-0.20435742,-0.1575118,-0.038328744,-0.12414492,-0.390747,-0.18672402,0.040746506,-0.16418041,-0.22898598,0.01330228,-0.04874655,-0.18963672,-0.21845606,0.09833744,-0.1256894,-0.13226244,0.12999226,0.05991798,-0.0043487973,0.13191792,-0.17176883,-0.002509128,-0.1658235,-0.16801646,-0.11892044,0.2672871,0.009013848,-0.012421955,-0.25034976,-0.008145915,0.102112085,-0.10103423,-0.12614912,-0.22239746,-0.1991601,-0.13923295,-0.035315063,-0.057360806,-0.052262414,-0.13829353,0.091438,0.15937346,-0.15351424,-0.18480374,0.2277664,0.13674143,0.11569568,0.10468028,-0.027734533,0.18701893,-0.021472985,-0.1404031,0.01475909,0.11075563,0.1976915,0.21172887,-0.46741864,0.06311485,0.08564654,0.30649668,-0.01823444,-0.048530996,0.14823571,-0.10882634,0.036602892,0.14416024,-0.037651703,0.12164067,0.0016069153,0.16185984,0.18262039,0.24814387,-0.11849623,0.043250866,0.18699305,0.13747717,0.19437724,-0.16762944,0.17154992,-0.0012350059,-0.0071262117,0.08144063,-0.0019176785,-0.10552934,0.19601348,0.0018369317,0.104876265,0.21000805,-0.007965627,-0.5024124,-0.2098752,0.12864242,0.048006125,-0.026603203,-0.33101115,-0.2398057,0.20882948,0.39463162,-0.07866463,-0.12026169,0.06643469,0.1596501,0.08700916,-0.009103957,-0.3115927,0.08270951,0.16096608,0.11073859,0.07080744,0.027515216,-0.17687547,0.24499075,0.20410255,0.0019229864,-0.12930207,-0.47770268,-0.02866948,0.04365526,-0.1465604,-0.01580513,0.8011517,-0.36481813,0.017961647,0.16345523,-0.0670392,0.032078773,0.08875866,-0.120770246,-0.099798344,0.006031856,-0.1859157,-0.111752614,0.12811436,-0.019139335,-0.24187556,0.020475084,0.25896037,0.15982187,-0.21183093,0.10692311,-0.012561331,0.16944236,0.0474191,0.13811958,0.05063958,0.1101995,0.20715518,0.16895916,0.16034913,0.22512944,0.1969009,0.086510606,0.18455441,0.09913394,0.2310141,-0.07283115,0.32936737,0.19583169,0.13005888,-0.04973876,0.2114656,0.00875748,0.08037467,0.05609788,0.17496017,0.08221325,0.013963519,-0.19223562,0.2873154,-0.11601264,-0.48749188,0.06422848,0.051899675,0.057150904,0.20371467,0.20515193,0.08443209,-0.013463326,0.03887391,0.1631788,0.0062961923,-0.0524618,0.099245295,0.1379893,-0.345865,0.07215243,0.16751745,0.2918598,0.30777204,0.042950515,0.09220916,0.07231413,0.22467227,0.09184112,-0.09941607,0.19652803,0.23809855,-0.015025127,0.0031188123,0.15016748,-0.13657609,0.13789694,0.111684084,-0.048467543,0.22715935,0.11995664,0.09236355,0.12746751,-0.18868664,0.0031830184,0.018536752,-0.19998902,0.15472798,-0.06957972,0.12366032,0.089531355,0.27508247,-0.19536372,-0.20849207,0.056818105,0.14951639,-0.0069035003,0.08277311,0.07221966,0.05511098,0.13977793,-0.13440238,0.30524865,-0.0204418,0.105698906,-0.04676163,0.19079733,-0.29787734,0.025379779,0.29419437,-0.1410493,-0.052009363,-0.15657683,-0.21704358,-0.07980388,-0.103092894,-0.0948397,0.015574492,-0.18746148,-0.03258787,0.029931074,-0.051978894,-0.0016362783,0.39824206,0.03403368,-0.07766233,-0.13267614,-0.19132704,-0.17463723,-0.0729207,-0.14104502,-0.24798584,-0.2093192,-0.034603972,-0.0429818,-0.37805003,-0.103439376,0.18053605,-0.38231695,-0.13157378,0.09447847,-0.0023438265,-0.16727728,-0.22485192,-0.04009797,-0.07166246,-0.19851516,0.025590839,-0.002571064,0.014754273,0.24466637,-0.14838842,0.056912586,-0.2314534,-0.060553093,-0.15636799,0.19275337,0.080336794,-0.16353665,-0.16403031,0.030695431,0.052863106,0.008402687,-0.18919694,0.020005649,-0.07228466,-0.18839324,0.006747861,-0.06169507,0.068334654,-0.038321085,0.27856648,0.11236316,-0.16378623,-0.15003374,0.1400319,0.004770161,0.0660956,0.12805538,-0.038822226,0.13811544,-0.06948278,-0.15637864,-0.07037022,0.1888604,0.22815385,0.30939054,-0.46322823,0.14002928,0.0637305,0.4745362,0.018545277,0.021357339,0.18340425,-0.1369731,0.00012319647,0.13954142,-0.042967513,0.016285948,0.10661536,0.27022937,0.12720504,0.35410005,-0.19740067,0.09141276,0.23660126,0.057715323,0.29292625,-0.2317864,0.3323431,0.05174058,0.121447034,0.10302193,-0.06086324,-0.32755297,-0.04473227,0.030743804,-0.0015061003,0.17477012,0.093619294,-0.45847076,-0.29666445,0.21306781,-0.005412854,-0.03728079,-0.26403317,-0.19069289,0.12900326,0.29366642,-0.1003729,-0.0642827,0.09871646,0.20965655,0.113193594,-0.082841456,-0.493639,0.15856868,-0.032359116,-0.027405716,0.014881733,0.17330956,-0.0678413,0.40432099,0.17792508,-0.20627224,-0.027969286,-0.38659513,-0.07163985,-0.070258416,-0.034861587,-0.12017484,0.02962063,-0.09179078,0.1361402,0.006292256,0.16579638,0.052098844,0.27370265,-0.25473645,0.05682577,-0.21460837,-0.4838012,0.10445713,0.15742137,-0.31797794,0.19610187,-0.27198464,0.27786088,0.3134006,-0.07931877,0.07888439,-0.122982696,0.06651505,0.13236111,0.083869584,-0.089206085,-0.07006738,0.25057206,0.034594025,0.36768663,0.21849798,0.19582574,-0.07472416,0.19045533,-0.147212,0.14557892,-0.13560614,0.21498865,-0.033248313,-0.03793719,-0.1844799,-0.18137473,0.1414501,-0.14824587,0.15894529,-0.099017225,-0.0056467038,-0.12243429,0.12745742,0.7252969,-0.17123227,0.03292518,0.02906836,0.11308675,0.05589015,0.19006081,0.17839645,0.023825165,0.11687176,-0.087709464,0.21639806,-0.101661034,-0.09632692,-0.017280547,0.2124894,-0.3400581,0.11055512,0.17777176,0.16432229,0.28318322,0.050095875,0.17438184,0.0010935982,0.13777989,0.07932142,0.030933319,0.08211463,0.15079825,0.24879067,-0.06268113,0.2416098,-0.08663482,0.10999192,0.12697007,0.05931061,0.2174716,0.10956405,-0.041295517,0.18512379,-0.06652573,-0.058968328,-0.011441596,-0.1621075,0.12089687,-0.12789954,0.090422764,0.05976723,0.14226422,-0.07333354,-0.008348414,0.14239942,0.06527691,-0.084829934,0.1459515,0.14636336,0.16179085,0.1138614,-0.05638862,0.170616,0.0327275,0.0042113224,0.05812352,-0.03899541,-0.3734172,-0.1695087,0.24585535,-0.121074855,-0.14905232,-0.10232748,-0.12623909,0.06236939,0.10282463,-0.19894326,0.15723893,-0.13222006,0.047973227,0.042937387,-0.023385229,-0.17711283,0.32424378,0.048591457,-0.049384966,-0.030032465,-0.22547877,-0.13076964,-0.07855809,-0.12469609,-0.20475776,-0.14306185,-0.11225947,-0.19914241,-0.1882453,-0.17581365,9.945073e-05,-0.33318922,-0.04245686,-0.14049675,-0.04300141,-0.19502044,-0.25971764,-0.059682835,-0.09058136,-0.2027918,0.026375405,-0.12684456,0.06437077,0.15824597,-0.19643822,0.12632242,-0.19043538,-0.15253334,-0.18648982,-0.029812852,0.20639573,-0.10598431,-0.25814664,0.18502308,0.03583279,-0.097722754,-0.13548788,-0.057444867,-0.26176313,-0.13415833,-0.128104,-0.15782401,0.09231187,-0.04597421,0.45954868,0.07664668,0.025223553,0.078734465,0.20478424,0.12487549,0.121383384,-0.1899344,-0.0796677,0.4637268,-0.2524682,0.0062932675,-0.1822145,0.05931178,0.042243022,0.3748699,-0.5756122,-0.01042295,0.08545497,0.4878947,0.15450385,-0.044266604,0.044189677,0.007242567,-0.14973405,0.21561222,-0.0072693266,0.014409496,0.008214956,0.3141207,-0.008718118,0.37443164,-0.117014594,0.1354618,0.2575019,0.3162127,0.3667386,-0.17075363,0.22874214,-0.08239732,0.24797325,0.14158857,-0.24396534,-0.15516156,0.09609222,-0.19665615,-0.032774393,0.26695606,0.08177221,-0.047509585,-0.32844034,0.30635443,0.026683524,-0.19485769,-0.21476632,-0.08085763,0.20239858,0.23882587,0.020147253,-0.06526305,0.23701674,0.11134973,0.107652605,0.013301743,-0.7523459,-0.011036806,-0.06817235,0.14285302,-0.076215,0.030877445,0.17537487,0.80314183,0.15665638,-0.35920262,0.22321571,0.07625853,-0.13886094,-0.31738585,0.32831192,0.096382424,-0.072409324,-0.14058325,0.033062864,0.04278373,0.17505418,0.022518506,0.1068473,-0.040300924,0.17255425,-0.17088267,0.09201208,-0.107511654,0.16094999,-0.54888344,0.026770096,-0.20705378,-0.019205792,-0.33377168,-0.0003908897,-0.25972936,0.067506894,0.22568282,-0.24682404,0.020218445,-0.19257712,-0.33362678,0.32866576,-0.036937613,-0.27826053,0.05710691,0.13781954,0.1852063,0.13258582,-0.48177668,0.41067275,-0.12862201,0.061583553,0.33512822,-0.023358189,-0.05857729,-0.057937376,-0.11899013,-0.34915024,0.089835435,-0.65435165,-0.40552706,-0.19080405,-0.17863397,0.29889733,-0.15645756,0.44038182,0.14133275,0.055643596,0.1421183,0.22127314,-0.106932,0.02489195,0.1168679,-0.18822242,0.103760585,-0.04214306,0.114614986,-0.069940425,0.27496603,-0.22937347,-0.053171784,0.28433317,0.21970327,0.19324735,0.113670155,0.262209,0.15687859,0.14797843,0.11496959,0.049213767,0.21699096,0.16408163,0.29024643,-0.23394096,0.3618368,0.06911066,0.13754325,0.1527862,0.10778426,0.26617387,0.047216944,0.044890855,0.2348927,-0.06556274,0.11482618,-0.079329975,-0.21742137,0.13440213,-0.12775917,0.0042931256,0.036555625,0.2294686,0.18730602,-0.39431491,0.23812412,0.11139529,-0.19069077,0.005335581,0.13803881,0.11937836,0.08599707,0.0071258205,0.1924465,0.21486819,0.043307196,0.06246718,0.052754316,-0.49558458,-0.014168561,0.048066642,-0.044275932,-0.176831,-0.1345897,-0.17486668,0.03595602,0.18017207,-0.12538119,0.06173624,0.013841942,-0.16088997,-0.046044037,0.011541969,0.029692436,0.3170775,0.043433897,-0.1792784,-0.06046072,-0.16023496,-0.0725438,-0.13924995,-0.07434201,-0.082398385,-0.23166741,-0.10027495,-0.10137742,-0.2723763,-0.30525348,0.2724229,-0.24193437,-0.19859836,0.038688734,-0.12351348,-0.352353,-0.20357844,0.20470928,-0.20861548,-0.11584944,0.032888833,-0.13575853,0.10361426,0.084335275,-0.16085438,0.19494247,-0.14029029,-0.261978,-0.15708105,-0.059336223,0.26222464,-0.1500865,-0.22555386,0.18742025,0.15584855,-0.070093304,-0.13801357,-0.110814944,-0.25794291,-0.076404415,-0.2965827,-0.10817291,-0.017429857,-0.14003354,0.26431087,0.053558648,0.17297399,0.11097709,0.24247952,0.14846745,0.07191513,-0.297221,-0.20657808,0.43625486,-0.39293426,-0.10195517,0.038731318,0.15113352,0.084212646,0.27178678,-0.44277775,-0.06677703,0.06148001,0.48759177,0.094579354,-0.061093073,0.08818999,-0.10026386,-0.12163712,0.16165541,0.024467353,0.11646629,0.031059971,0.44992462,-0.18604016,0.26567397,-0.07810133,0.1624453,0.28580266,0.44961008,0.18742244,-0.39476356,0.2233417,-0.025688877,0.15746711,0.21319072,-0.37948832,0.07657545,0.030518124,-0.47696772,0.08495788,0.24122567,0.14924288,-0.0078092543,-0.38439658,0.2285949,-0.006716451,-0.35410464,-0.17735836,0.019544266,0.15551308,0.34143275,0.06405177,-0.13701636,0.3853176,0.053480502,0.022931658,0.030845582,-0.7369919,0.029260214,-0.05783776,0.26162693,0.017308284,0.029008465,-0.007028735,0.65814054,0.24988255,-0.1304873,-0.14110143,-0.431964,-0.29342288,0.14101674,-0.25833112,0.32293126,0.3379676,0.07803107,-0.108827114,0.15903825,-0.081648156,-0.07903981,-0.16070856,-0.07238575,-0.10838268,-0.06933819,-0.2259198,-0.036030665,0.39954516,-0.09471274,0.45701128,0.25885642,-0.06591817,0.3411192,-0.19321829,-0.33760193,0.42112395,0.196898,-0.023851248,-0.102857366,-0.15600191,-0.007480963,0.20362055,-0.05087496,0.23187566,0.40927082,-0.029986132,-0.23394339,0.06817942,-0.11856158,0.44324568,-0.11250823,0.12743649,0.425624,0.09512149,-0.14223604,0.35026386,0.0140681155,-0.09277964,0.035633616,-0.52464503,-0.021373611,-0.04363409,-0.015699014,0.26608413,-0.00341299,-0.06394649,0.04963091,0.18761644,0.059687372,0.116892286,-0.111962706,-0.094510995,0.1782141,-0.116264954,0.15730165,0.05739916,-0.04279847,-0.08075939,0.1883277,-0.28110978,-0.03828999,0.24605376,0.36511883,0.20593065,-0.0037875404,0.120182395,0.17424588,0.03329857,0.20180345,-0.017779673,0.2736469,0.07552885,0.36656612,-0.23746738,0.25993425,-0.008116855,0.06969904,0.19030805,0.17454757,0.12812962,-0.15906988,0.06785703,0.23869085,-0.03094895,0.14605625,-0.16945548,-0.051047195,0.12049465,-0.27042207,0.15036495,0.1294982,0.28344625,0.33623895,-0.40723476,0.16352718,0.13136223,-0.32777566,-0.122382276,0.16918208,0.13214976,0.15153918,0.054314215,0.22880495,0.3892948,0.0031370986,0.09281848,0.15866855,-0.57898486,0.024909338,0.05215289,0.072988406,-0.14984839,-0.2597649,-0.028651642,0.10080703,0.13304862,-0.142447,-0.023390751,0.017609393,-0.093448155,0.024337571,-0.06339642,-0.03387592,0.2150494,0.045197964,-0.10052269,-0.18191734,-0.17823489,-0.11130362,-0.03425471,-0.1476826,-0.14410333,-0.13539734,-0.09765042,-0.15275212,-0.18006812,-0.13302629,0.23379625,-0.118866794,-0.19663493,-0.11103216,-0.11789286,-0.2657445,-0.04561199,0.19355492,-0.12087975,-0.2157369,0.036706008,0.0014745445,0.099840924,-0.087616056,-0.09067632,0.25720596,-0.20082067,-0.2619655,-0.2569982,-0.0715466,0.33259115,0.014585836,-0.34730044,0.36188298,0.21043213,-0.090691455,-0.13104671,-0.2632989,-0.31025898,-0.014937477,-0.2850852,-0.08831274,-0.08065633,-0.302934,0.19586383,0.030692024,-0.020968474,0.083156504,0.17856705,0.1039414,0.062407408,-0.41694334,-0.20055199,0.40241334,-0.18442243,-0.10880724,0.052475337,0.092179984,-0.14665477,0.09127446,-0.35670558,-0.10801867,0.13429518,0.47680232,0.13232134,-0.07282774,-0.1223188,-0.21223186,-0.02059355,0.11943944,-5.5937617e-05,0.16535555,-0.0061507975,0.63152015,-0.2465856,0.08694545,0.005097481,0.21936496,0.24851626,0.3777861,0.042485442,-0.30983976,0.10351301,-0.07568784,0.18483952,0.24620722,-0.30665404,0.026150206,0.19331917,-0.5600243,0.06369065,0.19846502,0.16456057,0.16914734,-0.5769588,0.042986933,0.13765767,-0.42261627,-0.3292959,0.058959335,0.2652354,0.43966284,0.2433383,-0.16015041,0.44427803,0.22319971,0.23060437,0.09054731,-0.50786656,0.058732096,-0.05884464,0.13703428,0.29983288,-0.07419728,0.068672195,0.3675747,0.3200267,0.40613106,-0.6815208,0.004452656,-0.32068783,0.17217648,-0.20481427,0.2574577,0.074519984,-0.23283783,0.051280424,0.32968587,0.06381395,-0.06576982,0.16914178,0.019196222,-0.18326436,0.07530384,-0.062517874,0.052526936,0.2306864,0.11418577,0.068167746,0.5305668,-0.038318522,0.15462705,-0.24510328,0.12495019,0.42065772,0.1410599,0.23620833,0.050705526,-0.11750682,0.20164697,-0.09200662,-0.13383195,-0.016042471,0.5446467,0.17334929,0.034474794,0.120116256,0.009233067,0.30931357,0.42968494,0.072190545,0.28073826,0.15388225,-0.17385381,-0.08001688,-0.34787318,-0.18190983,-0.031671863,0.026634859,-0.28645968,-0.12651487,-0.08813609,-0.39818683,0.012789076,-0.19540606,0.09966018,0.10342041,0.14204714,0.18289077,-0.13800701,-0.14977334,0.16056463,0.060728334,0.078578204,0.17214817,-0.0942005,-0.015581407,-0.016004134,-0.16892762,-0.043959245,0.27203017,0.19978493,0.2213952,0.068904236,-0.005022847,0.08170891,0.091645375,0.10477701,0.10558228,0.17679961,0.11844819,0.21529946,-0.3201186,-0.012895871,0.091160685,-0.059179764,0.28191105,-0.0020158605,0.010734737,-0.06826495,-0.030634467,0.056274865,0.03862182,0.117803924,-0.16329703,-0.17429057,0.15447514,-0.35075474,0.05731298,0.18377154,0.32052153,0.009450372,-0.3197995,0.071476184,0.26346168,-0.383903,-0.17833482,0.28029886,0.27437896,0.24139953,0.119732715,0.22324933,0.30229062,-0.036638144,0.08094546,0.1725375,-0.37481156,0.06561446,0.29502025,-0.06862636,-0.0726671,-0.25218323,-0.048011262,0.23783103,0.12545983,-0.09293829,-0.09841505,-0.0019154239,-0.12034713,0.08365545,0.020856649,0.0349795,0.0414443,-0.044522397,-0.11549102,-0.12995309,-0.24304128,-0.1748656,0.15703732,-0.09744452,-0.15222903,-0.026935507,-0.0374374,-0.14639589,-0.26478037,-0.21954463,0.2408676,-0.11466579,-0.22153771,-0.037500724,-0.022014016,-0.17905909,-0.029148836,0.10335417,-0.122827046,-0.32080176,0.0670506,0.0034246908,0.01615405,0.09430944,-0.21193328,0.43477798,-0.19554512,-0.18499413,-0.22888659,-0.11151145,0.3073866,0.033728484,-0.22978623,0.3340574,0.17381302,-0.1627537,-0.322602,-0.21797019,-0.28866285,-0.02318758,-0.10011869,-0.19001202,-0.03567806,-0.22244616,0.12400759,0.024835907,-0.22115254,-0.06066148,0.30378142,0.105302304,-0.026970029,-0.3577766,-0.24917185,0.47191462,0.10389257,-0.13300593,0.029111639,0.04559268,-0.09248521,-0.022747627,-0.32529846,-0.041811604,0.25998443,0.3086794,0.18102117,0.06692638,-0.2507376,-0.19691516,0.045896485,0.08748316,0.058967505,0.04048174,-0.07323832,0.365153,-0.4719351,-0.103172876,-0.016494663,-0.06637608,0.36747736,0.03437664,-0.06394349,-0.18236926,-0.03610512,0.09133361,0.2853108,0.15818493,-0.3038692,-0.22081499,0.15970273,-0.38655853,-0.10858655,0.2971801,0.1096397,-0.17617789,-0.53496885,0.012377546,0.15986057,-0.3289657,-0.40020257,0.17167836,0.31915826,0.33878493,0.3068465,-0.30277616,0.25277463,0.082924694,0.13836005,0.059766557,-0.48298848,0.20644404,0.121341236,0.058632858,0.11143433,0.03660516,0.10677736,0.41940883,0.09489705,0.094880775,-0.5439128,-0.21545082,-0.23916087,0.32656634,0.08329898,0.2382139,-0.35447946,-0.5649269,0.020236656,0.32913068,0.22105025,-0.2754429,0.414201,0.08229206,0.048343457,0.27103436,-0.07519631,0.14202128,0.013145562,0.023736695,-0.2228975,0.3579023,0.28688255,0.042733327,-0.08360745,0.7857061,-0.104556374,-0.08672038,0.26428166,-0.041847482,-0.07753069,0.2018981,-0.17152914,-0.014510385,-0.19953367,0.1568053,0.3580089,0.16746081,0.05862289,-0.20648016,0.05007506,0.36334547,-0.05095049,-0.16662201,0.036736302,-0.10529106,-0.538199,-0.076364,-0.05913025,0.011886935,0.6444507,-0.329118,-0.16306634,0.22701485,-0.30065945,-0.18814185,-0.3729182,0.035925403,0.02913164,0.092948586,0.09763194,-0.21911794,-0.14904492,0.072787575,0.12572482,0.08551623,0.19041856,-0.087254316,-0.13419524,-0.012854433,-0.017231569,0.13285361,0.42558053,0.18409993,0.18520856,0.1509986,-0.10201629,0.017159909,0.12404381,0.05863004,0.13200809,0.13997026,0.17068478,0.27518022,-0.31950572,-0.043841336,-0.0021397136,-0.034999758,0.2750034,-0.16145964,0.078498095,0.00012919796,-0.08859019,0.2663899,0.037773743,0.011856908,-0.08766514,-0.10915126,0.16887644,-0.48934364,-0.003621695,0.14007807,0.295346,0.096839726,-0.44536248,0.034577515,0.24433568,-0.3462411,-0.107822046,0.3062845,0.4744643,0.2356785,0.14673784,0.12989989,0.10595125,0.13269037,0.061079226,0.05486863,-0.1282652,0.020786483,0.37757945,-0.09486396,-0.1282067,-0.15826608,-0.03488948,0.26341328,0.10834607,-0.12275317,-0.075814724,-0.035602015,-0.17261206,0.06516137,0.014115437,-0.0073988354,-0.035444938,-0.19094403,-0.16553825,-0.05792253,-0.16623536,-0.17357485,0.024585906,-0.0067051826,-0.11967634,-0.034888055,-0.16080119,-0.04530068,-0.12644897,-0.15616831,0.1039334,-0.046594594,-0.122355014,-0.019252587,-0.033434,-0.102079764,-0.12096508,0.09409848,0.0075371894,-0.19824046,0.0036095686,0.0027431606,0.06017841,0.12810388,-0.19667648,0.31570056,-0.05876095,-0.06579123,-0.16478023,-0.027463516,0.1428753,-0.09112892,-0.23567235,0.1464692,0.14874715,-0.12742744,-0.26433536,-0.16222209,-0.2719827,-0.106584065,0.10449933,-0.230301,-0.016998067,-0.1272085,0.036423597,-0.03399983,-0.3319658,0.055317264,0.15720414,0.07302146,0.10695155,-0.58097374,-0.13622248,0.23483838,0.10517005,-0.26398584,0.15398489,-0.051369,-0.037582293,0.12769473,-0.27597877,0.093672104,0.20108953,0.26043364,0.0076724137,-0.010633543,-0.3158209,-0.32256806,0.03961835,0.023107592,0.17942135,-0.014829923,-0.05843853,0.27951857,-0.3275901,-0.1710271,0.051949456,-0.103631094,0.38041887,0.2722655,-0.11504723,-0.22092004,0.1527116,0.16796355,0.22603361,0.15469234,-0.18148415,0.023409346,0.26248354,-0.5070867,-0.16182835,0.34484795,0.19537723,-0.101468734,-0.49428728,-0.049999908,0.104487486,-0.3625978,-0.53288335,0.1232395,0.3318599,0.32475057,0.2657195,-0.14687504,0.08516011,0.07537176,0.19162087,0.06357034,-0.1936447,0.142499,0.17793214,-0.0734954,0.051421046,0.021935962,0.2955168,0.29655573,-0.038975745,0.064300574,0.10017339,-0.20866813,-0.140372,-0.048584145,-0.14582615,-0.050211567,-0.13980392,-0.5430745,-0.07085092,0.017607413,0.26041412,-0.2178253,0.0071632024,0.15485398,-0.22413127,0.1282095,0.10410161,-0.054273058,0.042974148,-0.17287329,-0.4674331,0.0904197,0.0104520945,0.24618584,0.21492158,0.18908478,-0.10003743,-0.012559762,-0.16214879,-0.07222574,-0.034301497,-0.073343806,0.024177315,-0.046335258,-0.13282187,-0.30460405,0.2090651,0.52348983,0.13740349,-0.067610696,-0.19509594,-0.31286055,0.0018298764,-0.46464935,0.013419749,0.28108126,-0.1352155,0.28822592,-0.2258076,0.07152579,0.37820548,0.03667462,0.04347373,0.1899182,-0.19657135,-0.2873284,0.04988522,0.34032908,0.08625284,0.10753771,0.07296043,-0.18407682,-0.03215354,0.22410955,0.110475294,0.26758403,0.15880378,-0.106552206,-0.028240282,0.044217255,0.08773147,0.21526195,0.3079638,0.14248557,0.15746862,0.17724016,-0.0463712,-0.0013761488,0.09609969,0.096966304,0.06076194,0.023455549,0.16380899,0.25121832,-0.17511606,-0.025498452,0.073715806,0.12239706,0.08157748,-0.20574209,0.08979761,0.017159019,-0.098333135,0.19831277,-0.016188817,0.09042147,0.05196973,-0.10945764,0.215868,-0.42492655,-0.0393564,0.079567194,0.28349158,0.3073211,-0.22100525,0.04757572,0.17016545,-0.05973308,-0.021792313,0.23871021,0.5052763,0.03647803,0.16291496,0.18637927,-0.11514271,0.059047744,0.037392467,-0.032957833,-0.1399817,0.024543032,0.45698264,-0.24566182,-0.16774999,-0.14883505,0.042121697,0.33119124,0.12733512,-0.007562481,0.11963212,-0.055137023,-0.045729674,0.07662726,-0.009506212,0.031135717,0.06725376,-0.097211845,-0.099196255,-0.09322512,-0.123561636,-0.14645109,-0.12022812,0.01756138,-0.22590578,0.047988378,-0.11126794,-0.121745676,-0.2108966,-0.20412625,0.1120921,-0.0449944,-0.20627052,0.11886361,-0.018797746,-0.17928939,-0.15638435,-0.06421613,0.08227675,-0.23446156,0.06401529,-0.02513088,0.13037679,0.12821345,-0.27658424,0.21889606,-0.081961975,0.050865017,-0.16137928,-0.11017039,-0.026548035,-0.050407976,-0.27001008,0.04713923,0.08514099,-0.07524088,-0.23984931,-0.07354785,-0.23339891,-0.1812642,0.17435439,-0.023026654,-0.02923417,-0.113630176,-0.00073888456,0.02448557,-0.21588036,0.19260743,0.19357982,0.1230793,-0.036691073,-0.40145424,-0.05281393,0.26185194,-0.035198666,0.12698624,0.34588286,-0.104611516,-0.12400369,0.15316728,-0.093305476,0.14185435,0.20939615,0.19808851,-0.08401542,0.07550497,-0.25732088,-0.15133993,-0.0019257315,-0.036352877,0.2878711,-0.053320725,-0.09445755,0.28538167,-0.15636899,-0.08998842,0.12084936,-0.13597818,0.26318493,0.32682613,0.040759772,-0.091768965,-0.09302441,0.28008014,0.17758848,0.17745619,-0.10881183,-0.06579479,0.43295223,-0.7461632,-0.18116523,0.06960927,0.19500457,-0.03890108,-0.30117342,0.06369302,0.17666388,-0.1645674,-0.5500752,0.036860634,0.30522,0.019146472,0.25822535,-0.09429687,-0.09685228,0.12985845,0.03038288,-0.07537692,-0.19844104,0.105526865,0.11229526,0.06220072,-0.0026824917,0.193981,-0.28869155,-0.00021499748,0.11968,0.21054733,0.3057504,-0.13202585,-0.060720973,-0.033547286,-0.3436229,-0.05607997,0.1598273,-0.3816036,0.1553889,-0.122386314,0.12649035,0.007891039,-0.09221449,-0.110700384,-0.10002596,0.15006374,-0.19920552,0.14780107,0.10484979,0.16231138,-0.1834485,0.038485263,-0.008332447,0.49414515,0.11308898,-0.38839644,0.05899673,-0.1471988,0.11490567,0.13592654,0.17719087,-0.19629535,-0.012719645,0.2617322,-0.11761269,0.028716642,-0.051687013,0.10610945,0.14158668,0.0081122,-0.35631424,-0.12298386,0.043319635,-0.25836286,-0.076776184,0.14475821,0.2978215,0.24539912,0.08180301,0.14199701,0.11492028,0.25628328,0.05864856,-0.10005447,-0.050438497,-0.16753675,0.23714106,0.41984442,0.06801068,0.11594997,0.1348148,-0.07377893,-0.0031414817,0.1532424,-0.1014602,0.33101618,0.08082487,-0.15051493,-0.010375694,0.19784948,0.051536366,0.18630509,0.33912352,0.16151574,0.111319534,0.20404242,0.06477959,-0.05864207,0.102361,-0.068842106,0.13140833,0.11403165,0.15840784,0.20221213,-0.071784794,-0.09511659,0.17419744,-0.16963868,0.024305243,0.015238317,0.14063151,-0.012891096,-0.12488808,0.20748168,-0.005789615,0.21356341,0.042797,-0.20756945,0.24387747,-0.36975706,0.11073628,0.09675062,0.28782764,0.10266058,0.016799342,0.2728924,0.24873959,0.08164022,0.03318994,0.072684094,0.30714607,-0.15608472,0.22401331,0.10193149,-0.23659381,0.014366251,-0.09154639,-0.16079368,-0.1340557,-0.025790097,0.35155556,-0.28415078,-0.21163836,-0.102943294,-0.067173816,0.13283323,-0.12020942,-0.11884715,0.22702445,-0.3009946,-0.19813144,0.17026804,-0.021926837,0.092473105,0.08199764,-0.17647903,-0.02415415,-0.10319066,-0.15785581,-0.22443743,-0.045636363,-0.07623243,-0.0054216674,0.017529776,-0.11230082,-0.050934456,-0.22551568,-0.14964516,-0.033142615,-0.11519985,-0.14807591,0.1528807,-0.004297408,-0.17590168,-0.3494804,-0.07025546,0.12911999,-0.18468852,0.10357399,-0.056398626,0.013669567,0.08878516,-0.39691028,0.43863776,-0.05507914,-0.0785734,-0.14403778,0.00078114483,0.013989899,-0.14105186,-0.34461802,-0.0059917714,-0.09074941,-0.1803427,-0.15826884,0.16857745,-0.23856394,-0.16434324,0.11492184,0.02266313,0.18886092,0.03806853,0.041821595,0.041130763,-0.33093727,0.31896713,0.3439114,0.08103297,-0.031843517,-0.27655008,-0.11368397,0.34237316,-0.28476608,0.3373027,0.18696563,-0.15929456,0.11324141,0.24887216,-0.043830015,0.14555286,0.22618322,0.26946822,-0.18463156,0.010398557,-0.15665056,-0.2131063,-0.1166192,-0.021794192,0.2721201,0.061665855,0.09945607,0.31734878,-0.08615955,-0.13794908,0.008710596,-0.30174613,0.2697285,0.23356965,0.19704881,-0.12145173,-0.23358476,0.2688486,0.25097907,0.25611955,-0.1749094,-0.07097066,0.3405733,-0.69727486,-0.016377943,0.04267267,0.14854749,-0.13621488,-0.074376255,0.29378542,0.20517862,0.12301672,-0.10774253,0.027010325,0.45390335,-0.24425481,0.2505131,-0.24788478,-0.3054152,0.021303432,0.12745085,-0.29007667,-0.25404012,0.013877846,0.24563353,-0.018307623,0.17009978,0.1654582,-0.3379982,0.06970217,-0.15120393,-0.043484204,0.282576,-0.77126855,-0.15046361,0.2542883,-0.14663045,-0.011358303,-0.003436682,-0.13624027,0.11776472,0.11835397,0.0032338977,0.06389839,0.15119413,-0.28205514,-0.0049975393,-0.07192408,-0.1627269,-0.04380656,-0.06473914,-0.09803848,-0.06757853,-0.16753905,0.22386336,-0.021478442,-0.011957169,-0.40615484,-0.39814246,-0.13835812,0.46885198,0.25526166,-0.014014931,-0.38103536,-0.04764371,-0.04992243,-0.23310153,0.72814524,-0.020161122,0.15063055,0.23512088,-0.013909296,-0.0073379567,0.09929053,-0.021253323,0.21143539,-0.5108133,-0.14686824,0.24783252,0.16171426,0.0018876033,0.16933736,-0.13033414,-0.18435174,0.034462582,-0.020926734,0.00069239887,0.31845638,0.1286187,0.27189896,0.07404637,0.06812983,0.27295178,-0.0026608934,0.1335993,0.1412386,-0.21166912,0.4973995,0.15141797,-0.2810506,-0.17866522,0.0698382,-0.07818897,0.058295332,0.1710938,0.11873256,0.10853168,0.0906164,0.0119059365,0.033414785,0.08360012,-0.04289173,0.19913194,0.14824271,0.28905553,0.17829004,-0.05769922,0.11669861,0.17916115,-0.15441614,0.094466075,0.05527557,0.23274636,0.12684888,-0.29319918,0.208186,-0.09085495,0.30327246,0.066683225,-0.13432871,0.3692494,-0.67376,0.16016577,-0.023204599,0.3079192,0.07288148,-0.014751489,0.15992934,0.3341369,0.054016817,0.16669689,0.26852384,0.31079558,-0.21252128,0.06247006,0.07764245,-0.17532293,-0.111722976,-0.019309858,-0.22578591,-0.10258863,-0.25454125,0.3116215,-0.27566662,-0.08277596,-0.06629423,-0.23831126,0.13678798,-0.11689111,-0.05543485,0.13330562,-0.39342377,-0.14104243,0.09222566,-0.053898312,0.038217463,0.050670497,-0.06475725,-0.057639845,-0.088446416,-0.10140641,-0.2872226,-0.010373752,-0.076389104,-0.17529576,-0.14418533,-0.029204993,0.024920948,-0.21160118,-0.17786257,-0.020195551,-0.19634019,-0.083614394,0.0058556935,0.11735985,-0.21779387,-0.3459549,-0.13695695,0.2055157,-0.16735291,0.0019214635,-0.13410822,-0.10105595,-0.058281824,-0.35904977,0.48299378,-0.19535767,-0.0670072,-0.16140458,-0.12766165,-0.011818687,-0.15994085,-0.3439902,-0.022766167,-0.21329328,-0.084253006,-0.13195764,0.09427523,-0.35806483,-0.01569426,0.16246933,-0.04594154,-0.07537353,0.13794096,-0.017704207,0.17409524,-0.30895886,0.3012547,0.12019568,0.105403945,0.13072085,-0.04223654,-0.059069067,0.31186673,-0.33182007,0.44327134,0.34731802,-0.14734215,0.07519525,0.24851343,-0.102429084,0.11485278,-0.027979465,0.20354994,-0.04472617,-0.026771741,-0.04134387,-0.058735378,-0.05459764,-0.03621328,0.24658614,-0.007197421,-0.017142178,0.22775106,-0.031490847,-0.055959474,-0.107611485,-0.23496544,0.2634409,0.39659327,0.281444,-0.10441327,-0.46194616,0.12137493,0.12016477,0.19216791,-0.03883852,-0.11820117,0.43829829,-0.7485832,-0.014184111,0.1434643,0.09621986,-0.0908263,-0.0075766244,0.25797644,0.15362714,0.06949598,-0.0063475114,0.092611395,0.3887145,-0.28082862,0.214378,-0.2785779,-0.20682764,0.023812862,0.11010549,-0.29064026,-0.1944537,-0.099664345,0.15077093,0.47381872,0.0787655,0.15342078,-0.20449011,-0.020290447,-0.019124929,0.14499623,-0.26210248,-0.26041836,-0.0976804,0.031865828,-0.25132474,0.1825596,0.24454767,-0.1363833,0.19031574,0.15010004,0.044046838,0.00032791158,-0.14974628,0.011169564,-0.23074639,-0.08953982,-0.07116759,-0.019285178,0.15870145,0.10321275,-0.2398561,0.06425862,0.27425885,-0.075578324,0.045213457,0.16161594,-0.011711693,-0.080904126,0.14944895,0.25463557,0.10411567,0.22424227,0.048297703,0.0034807727,0.33518493,0.07281046,0.047031365,-0.0919073,0.31200594,-0.09428341,0.15815835,0.025889035,0.053821005,-0.0492087,-0.44290102,0.08410823,-0.10728032,0.022858236,0.029654132,0.10935006,0.08282529,-0.10145822,-0.04533198,0.09656468,0.027640149,0.124965265,-0.021421906,0.24642612,-0.010935019,0.0144614605,0.3187258,0.07947878,0.15409076,0.09380629,-0.21576327,0.68178964,0.23322748,-0.1996249,-0.11801319,0.058180008,-0.10118602,0.15162735,0.17071918,0.22621474,0.22580199,0.07366706,0.056745782,-0.031429723,0.018220326,0.08606623,0.16332969,0.26141134,0.22078955,0.26900303,-0.046166476,0.16693501,-0.005729105,-0.028135926,-0.034185,0.072200455,0.35423797,0.12471673,-0.37476647,0.21660547,-0.047090273,0.19269192,0.09077663,-0.07780922,0.2780378,-0.69735986,0.13779487,0.045126215,0.2792538,0.13964432,0.046414867,0.14717376,0.37514147,-0.03047968,0.4255483,0.14340626,0.4177645,-0.4250135,-0.08201274,0.048442136,-0.08127523,-0.054694094,-0.09081387,-0.22205183,-0.0443558,-0.30785322,0.3774059,-0.29639593,-0.07140473,-0.17311046,-0.17670691,-0.019307869,-0.14468461,-0.04389132,0.12827939,-0.33458778,-0.026928242,0.07187657,-0.03986653,0.027289279,0.09823147,-0.09542401,0.008165095,-0.07593235,-0.17834683,-0.17630331,-0.02443767,-0.13768223,-0.08734494,-0.09954722,-0.074166074,-0.025436478,-0.28881142,-0.1595709,-0.04552408,-0.17243215,-0.16391994,-0.01073463,-0.030240322,-0.16734056,-0.33898538,-0.07742119,0.16248934,-0.2453408,-0.025749998,-0.058231317,-0.091083355,0.016423851,-0.23927686,0.34272075,-0.06896633,-0.07920369,-0.10359216,-0.14498203,-0.10537581,-0.074852295,-0.24262841,-0.0852698,-0.34414032,-0.24027164,-0.23599193,0.25396335,-0.14556351,-0.14238913,0.19492969,-0.002037006,0.023763554,0.23740014,-0.018628862,0.21588542,-0.28838733,0.19607526,0.10724862,0.03102618,0.10293944,-0.09726508,-0.070856385,0.31072634,-0.3860027,0.5142314,0.19584318,-0.22802323,0.11245053,0.2706577,0.04475261,0.023805276,0.16326028,0.28012708,0.075206146,-0.07532502,-0.12041978,-0.062698826,-0.051715538,-0.042439807,0.3069825,0.07514794,0.009861972,0.23699597,0.07669292,0.095004305,-0.15592542,-0.03157061,0.20680644,0.3993624,0.36981678,-0.12754412,-0.4360613,0.10534595,0.1911046,0.22029135,0.018911252,-0.021580473,0.31105882,-0.8167575,-0.046020836,0.18771628,0.027987275,-0.032272168,-0.059733115,0.14135589,0.2212481,0.1304983,0.3050271,0.033227958,0.39651617,-0.30052754,0.084479235,-0.22544727,-0.076771036,0.015925502,0.092005685,-0.37591094,-0.20412728,-0.303405,0.066874534,0.40416437,0.13640538,0.19140741,0.053822916,0.16016206,0.15125588,0.19739677,-0.5744816,0.19811691,-0.11884057,-0.15333754,-0.1374323,0.08372684,0.3802919,-0.18620169,0.08727342,0.2529194,-0.0037845236,-0.049269605,0.085189514,0.0031829476,-0.2469711,-0.056530587,-0.005222907,0.22461893,0.1358292,0.14043882,-0.08399199,0.14756584,0.28255776,0.0642863,-0.067503594,0.20780002,0.14468943,-0.04849971,0.08978159,0.10502635,0.117843136,0.3331488,0.26764408,0.16980894,0.20960753,-0.47728646,0.2142525,0.04124774,0.36179185,0.10881256,0.027140286,-0.008894815,0.15727201,-0.06533086,0.09051621,0.10041084,-0.32329318,-0.040495504,-0.0032469502,0.19833103,0.04030235,0.10384964,-0.15669551,0.02281423,-0.13220558,-0.15054248,0.01054296,0.13880076,0.08512172,0.040681444,0.24901764,-0.06490199,-0.013264008,0.1455161,-0.1375748,0.52675843,0.10637054,-0.13693008,0.0034480775,0.11827876,-0.01707474,0.057979114,0.23427422,0.20350343,0.15632062,0.09023638,0.16699862,0.098331995,0.18538909,0.08976415,0.16428761,0.15564801,0.34025282,0.1582799,0.0054746508,0.1121144,0.060338974,0.002434649,-0.042378787,0.11113042,0.35195485,0.23746446,-0.47332293,0.2187626,-0.03211455,0.06884897,0.07201712,-0.08132669,0.23245205,-0.5465327,0.056071613,-0.023093615,0.14490041,0.2195387,0.0022209056,0.09556369,0.24882938,0.14903913,0.357087,0.20310633,0.46992284,-0.2992849,0.0979554,0.10899375,-0.2309899,-0.05163655,0.010598489,-0.1981998,-0.10780042,-0.28138906,0.31459948,-0.20411813,-0.20348237,-0.03552926,-0.20934829,-0.05965202,-0.018127978,-0.04786385,0.0085165035,-0.3995562,-0.118808135,-0.003528695,-0.063317716,-0.026040321,0.123904884,-0.11943083,-0.043829106,-0.10844948,-0.24417658,-0.1471576,-0.06775749,-0.039724708,-0.0742641,-0.0064240294,-0.06431221,0.025232263,-0.30099773,-0.0517476,-0.009126509,-0.1668611,-0.19956717,0.06057924,0.023609452,-0.12560089,-0.31358024,-0.06427248,0.23528804,-0.23466317,0.113738574,0.011257193,-0.09534649,0.018608235,-0.32054776,0.25145876,-0.2034832,-0.14196627,-0.085498676,0.052415363,-0.086812556,-0.08588703,-0.22090715,-0.029281586,-0.29698396,-0.11934683,-0.3535371,0.25223503,-0.24887201,-0.1667451,0.10824198,0.08379733,0.030260894,0.10787248,-0.07424733,0.20135611,-0.28964448,0.10676233,0.09939982,0.013429181,0.17120005,-0.062262513,-0.06288203,0.2387985,-0.2286633,0.44278115,0.1480659,-0.021110674,0.02441758,0.19078974,-0.21356508,0.07775077,0.015694693,0.26063293,0.024188826,-0.07158858,0.018433973,-0.099737376,-0.043590657,-0.0117482105,0.18321039,-0.03413588,0.00055241387,0.039917998,0.13558999,-0.07467552,0.027163902,-0.035180565,0.04766238,0.26742452,0.292543,-0.087479495,-0.3970645,0.059877727,0.17734055,0.16358198,-0.09967042,0.07636339,0.2077533,-0.59708375,-0.07068142,0.105389826,-0.052352566,0.09720394,0.0149676055,0.2698013,0.17876872,0.16345152,0.25111327,-0.021463439,0.5172871,-0.2481183,0.069235526,-0.041118458,-0.09385449,-0.0151981935,-0.012927212,-0.40360576,-0.02877439,-0.15201068,0.10912193,0.28364018,0.26795688,0.26654565,-0.15400286,0.23458496,0.069139,0.04510316,-0.20443654,-0.040518507,0.09917349,-0.16796015,0.067958295,0.13455084,0.097720884,-0.1560465,0.045995142,0.18204342,0.016604077,-0.10271688,0.04889903,-0.15855084,-0.15950648,0.019192073,0.13916148,0.19429584,0.04250929,0.18935385,0.09294395,-0.03724516,-0.028435271,0.33005354,-0.025371565,0.116365306,-0.0357907,0.073809125,0.11434912,0.14123994,-0.028084947,0.2522413,0.11971476,-0.015951987,0.13090813,-0.08608251,0.2096444,0.33777082,0.34128192,0.06585251,0.15179251,-0.13362364,0.21721543,-0.012045767,0.07904294,0.0820528,0.025793914,0.21949826,-0.07220299,0.014701272,0.092550635,-0.040482625,-0.076701805,0.10128132,0.082024984,-0.17241944,0.08911511,0.14628811,0.0017774545,0.027503902,0.18678257,0.016209595,0.017162303,0.046785284,-0.036725443,0.4229294,0.06787157,-0.10009727,-0.059269752,0.12995368,-0.044434648,-0.010971767,0.123431906,0.16622786,0.27878088,0.041105665,0.096480325,0.057564437,0.15098977,0.1440843,0.14869146,0.062363382,0.2300714,0.12338827,0.003990703,0.09249873,-0.056238707,0.0054394947,-0.050741173,-0.046125676,0.31065693,0.2431372,-0.32253197,0.12620622,1.9725616e-05,0.022558248,0.049575455,-0.00052826526,0.23690277,-0.42926386,0.11835642,0.005552439,0.114879675,0.23391998,-0.015778929,0.252115,0.16654171,0.15595199,0.38210586,0.17578125,0.4099671,-0.35036358,0.0983139,0.18129626,-0.24639238,-0.12259502,0.021415358,-0.12840213,0.035390265,-0.2560944,0.31690377,-0.23178744,-0.088439636,-0.0052213958,-0.15094881,-0.13484786,0.00085117965,0.12853047,0.046093583,-0.3058064,-0.11234276,-0.034190048,-0.023024267,0.08390661,0.097859055,-0.024276763,0.053607173,-0.055644788,-0.2793083,-0.076306745,0.011095217,-0.05787846,-0.16736619,0.029696018,-0.0038437708,0.04946434,-0.3006708,0.06323987,0.019409724,-0.09163082,-0.12631826,0.1236225,-0.010922888,-0.121262215,-0.31279644,-0.111963324,0.033601154,-0.093098365,0.061965823,0.022622984,-0.060658738,-0.012374604,-0.23245166,0.26349324,-0.091296226,-0.06939077,-0.08929243,-0.023963466,-0.0011585747,-0.079738975,-0.2245181,-0.12105605,-0.14764084,-0.040874105,-0.20689112,0.15801159,-0.26866168,-0.086744346,0.091579616,-0.023458468,-0.03394042,0.018012471,0.04890603,0.12546554,-0.16112182,0.11391462,0.155693,0.0028008095,0.15255612,-0.07564593,0.07473832,0.21883966,-0.123935856,0.19209285,0.20183866,0.07811964,0.056071475,0.12743978,-0.14593269,0.171728,-0.069173664,0.2987189,0.014038123,0.08552968,0.104214996,-0.15508191,-0.11157972,-0.024319818,0.098898344,-0.025711322,-0.07788479,0.16273008,0.113383375,0.11584291,-0.03770862,0.037928723,0.12870686,0.24095379,0.17556523,-0.12088295,-0.331379,0.16026977,0.09619054,-0.017055511,-0.014315193,0.0047334293,0.18357727,-0.47623983,-0.011416523,0.10687943,-0.102353744,-0.10505036,-0.0014216821,0.2464526,0.13538235,0.17376529,0.08776656,-0.02514764,0.48852578,-0.07949953,0.091893576,-0.16468234,-0.098297775,-0.06391916,0.05733131,-0.23312023,0.059596892,-0.038186833,0.122971326,0.11677906,0.13555047,0.17792742,0.124193996,0.2970965,0.07918062,0.15307733,-0.30486733,0.36310115,0.0039532613,-0.20025486,-0.10776788,0.19174631,-0.017639142,-0.4088188,0.07768101,0.20856108,0.20796604,-0.06790739,0.08264309,-0.008998382,0.035860542,-0.008448531,0.051023338,0.06342091,0.11299423,0.05278924,-0.10084483,0.22208892,-0.010857483,0.13691816,-0.015355432,0.23358774,0.30292013,0.08761182,-0.37402737,0.22035986,0.013059915,0.03905148,0.17178138,-0.0018801021,0.13747346,-0.3967218,0.19736713,0.08970236,0.2604234,0.037571605,0.15474746,0.15801178,0.16609018,0.16085556,0.4335715,0.022963762,0.3681086,-0.49075568,-0.042664748,-0.04419328,-0.09578917,-0.056872576,-0.086819075,-0.27807048,-0.08759616,-0.44845656,0.07273708,0.13177554,-0.055623323,0.033176992,0.26838848,0.1047792,0.032917492,0.032212302,-0.07899633,0.21589358,0.12041057,-0.03491443,0.06920549,0.06136209,0.007812745,0.026989907,0.12726724,0.110769436,0.18276389,0.027718289,0.12340698,0.042438176,0.13619211,0.06491044,0.06000262,0.09516667,0.26542258,0.032903716,-0.06130108,0.12047284,0.09867537,0.009948024,-0.045921158,0.09216635,0.30188072,0.12496349,-0.26514173,0.16688827,0.0644234,-0.057100523,0.09339399,-0.050002728,0.14370409,-0.31127426,0.08422613,-0.05120162,0.18739627,0.094738945,0.05215635,0.09570762,0.1859429,0.07390432,0.18738851,0.16728002,0.33739382,-0.16269092,-0.080618024,0.21927014,-0.09844447,-0.036328085,-0.0067773014,-0.17628802,0.12348757,-0.24754657,0.24940795,-0.25301754,-0.06974744,-0.033358935,-0.10723767,-0.1252289,-0.061831113,-0.021056728,-0.04061837,-0.20425975,-0.10359753,0.0048558777,-0.009574452,-0.0035550206,0.06470266,-0.04966772,0.038889848,-0.068914406,-0.1577332,-0.1230485,-0.052490316,-0.108181775,-0.15697001,-0.008833946,0.031065112,0.06797676,-0.30382848,-0.084230185,-0.075308435,-0.072797574,-0.14751925,-0.0025807747,-0.0133366175,-0.13674106,-0.09197215,-0.0871385,0.06516512,-0.16446611,0.05717616,0.0006373296,0.043654136,-0.09483401,-0.19883154,-0.00090723543,-0.14717577,-0.20076862,-0.13603705,0.04502959,-0.11238579,-0.03527902,-0.22703429,-0.0028691639,-0.19127664,-0.17759009,-0.14363559,-0.06695248,-0.24543302,-0.11613372,0.001747426,-0.04741192,-0.101566955,0.016124839,-0.08285774,0.062111873,-0.14946835,0.02274621,0.028261364,-0.0077345655,0.10538821,-0.03553408,-0.04181565,0.3229698,-0.08365536,0.16947833,0.13553931,0.13474299,0.0063399985,0.14299692,-0.019141778,0.11526957,-0.009751684,0.28595477,-0.015298879,0.065380685,0.01949671,-0.183966,0.029108629,-0.07489196,0.12671535,-0.06918553,0.1093971,0.09453057,0.078551255,0.012840383,0.06342404,-0.019992813,0.021157168,0.23724784,0.18206856,-0.18891741,-0.104220085,-0.011401571,0.09144363,-0.0057924273,0.017598279,0.1730979,0.21633457,-0.32632208,-0.028905788,0.09889404,-0.043047257,0.12584864,-0.18088499,0.18408674,0.06759113,0.19695704,0.006655172,-0.058095638,0.24094929,-0.016106343,0.09200391,-0.1258954,-0.06814913,-0.0089531345,0.08482379,-0.13319843,0.05573536,0.05962479,0.099933624,0.11758925,0.031611502,0.057316538,0.13274649,0.33746824,0.20787095,0.08341512,-0.45128837,0.25387606,-0.058090616,-0.041027542,-0.1582565,0.29254866,0.043416183,-0.41860425,0.08229426,0.12557141,0.18113983,-0.0928692,-0.013751309,-0.13589814,-0.07270122,0.06539869,0.14468175,-0.040032953,0.0702452,-0.11740286,-0.13848954,0.07372908,0.17247704,0.02923462,-0.03937069,0.24009536,0.35740286,0.2047798,-0.37347305,0.17228223,0.037806354,0.041940786,0.14098096,0.16841085,0.11421987,-0.43056396,0.17458183,0.024549838,0.2265551,-0.041341282,0.13102971,0.13962583,0.0924356,0.22111098,0.33852562,0.02774875,0.30224955,-0.41424537,0.030977992,0.050820716,-0.2874085,-0.14400902,-0.0514755,-0.45409516,0.0066826465,-0.3468169,0.11250486,0.11177802,0.022636134,0.02015957,0.25952497,0.059392,0.064960614,0.021643208,0.015710838,0.19508015,0.09939475,0.09144872,0.032779332,0.040276933,0.06349373,0.1342734,0.25389624,0.10867582,0.0658778,0.09410472,0.15271747,0.050465774,0.104715526,0.04381018,-0.08515544,0.06182541,0.23645559,-0.00078231026,-0.09837537,0.16541193,0.16002142,0.10410894,0.0022834435,-0.041803747,0.18191049,0.21165387,-0.16748428,0.118151024,-0.04832885,-0.058597364,0.0747769,0.0018023289,0.20485772,-0.1512674,0.12927994,-0.054801427,0.1705824,0.2178192,-0.03364898,0.112668246,0.11351019,0.056437984,0.20106345,0.21793,0.1760703,-0.09504037,0.02431488,0.17611606,-0.111987814,-0.005360008,0.070861116,-0.027429283,0.13675049,-0.009344074,0.14059962,-0.21019606,-0.09952774,-0.019198671,-0.10248731,-0.047867335,-0.072767176,0.08068751,-0.072459064,-0.054910272,0.018240744,-0.012776719,-0.050607234,-0.0032214902,0.0048303106,-0.15470566,0.058823086,-0.14740306,-0.03514981,-0.25560313,0.0781732,-0.034696843,-0.17397927,-0.037111595,-0.0049861926,0.064321764,-0.2905157,-0.045574766,-0.05400725,-0.0007210445,-0.08600123,-0.097520776,-0.034081873,-0.0075394544,-0.15649104,-0.10759707,0.009328383,-0.16297258,0.004445618,0.024418518,0.04468172,-0.041257452,-0.24096589,-0.11149594,-0.14599337,-0.122332856,-0.06962967,-0.14661318,-0.09224318,-0.061227016,-0.14484,-0.19013028,-0.13602643,-0.042888023,-0.023398573,-0.17073327,-0.21088962,-0.1889544,-0.07425257,-0.058819618,-0.030642875,-0.040029377,-0.10426705,0.026646132,-0.19605768,0.011429041,0.12758534,0.0030838242,0.03348586,-0.120647244,0.011877076,0.18955012,-0.06686999,0.10706335,0.033801243,0.15463951,0.04209949,0.23546301,-0.06214015,0.17516722,-0.08621349,0.27973658,-0.044709392,-0.031556252,0.11510793,-0.10940222,0.03370699,0.010692028,0.040235862,-0.08475917,0.023269212,0.026710844,0.11647846,0.076210186,-0.050299816,0.10267847,0.21295215,0.20695055,0.16294344,-0.14553116,0.056220613,0.10834109,0.10720724,0.01305954,-0.086131886,0.1297655,0.12297393,-0.023043431,-0.0015306592,0.12359941,-0.108860366,0.09243333,-0.066530004,0.06469695,0.04971664,0.116527535,-0.017781818,0.036038447,0.17105797,0.11830397,0.1272838,-0.027781826,-0.0690656,0.030609256,0.108329676,0.064658366,0.08105795,0.25822183,0.0058586886,0.1899626,0.11325188,0.13058706,0.06805159,0.25175422,0.0939484,0.16797812,-0.3241661,0.2998901,-0.048334505,-0.12175926,-0.052024674,0.14094888,0.19690499,-0.40878782,0.13702288,0.2251977,0.20014507,0.0069531463,0.009286699,-0.10801469,-0.014686865,0.066949815,0.014271257,0.022948852,0.09464172,-0.03827441,-0.13905597,0.15891139,0.23741607,0.06501863,-0.0038656408,0.13267973,0.20282982,0.14049143,-0.27204025,0.2800819,0.018956147,0.008175075,0.0931282,0.17039001,0.07345778,-0.12123984,0.120349884,0.15058541,0.1517533,-0.07200564,0.12147588,0.07261111,0.16244791,0.17272519,0.34199327,0.0990842,0.16643415,-0.36001754,0.036600385,0.04666374,-0.23949616,-0.12941723,0.010791578,-0.14633542,0.0469862,-0.26784188,0.05073585,0.05464791,-0.02821931,0.03759918,0.17715804,0.13124514,0.0923223,-0.009647444,0.080410905,0.11282269,0.05468954,-0.1169127,0.07172318,-0.010842258,0.10409675,0.1404955,0.1577398,0.06081694,0.12250894,0.120046146,0.16348127,0.10043991,0.14162031,0.09107395,0.054911707,0.13777928,0.271972,0.08063857,0.06629151,-0.0014843177,0.18132433,0.07025412,-0.011410737,-0.046563957,0.10185668,0.11775274,-0.087636486,0.17419694,-0.02494076,0.012072369,0.05713741,0.008489644,0.16608255,0.050216474,-0.0058146096,0.0011414068,0.08677209,0.16862074,-0.07182539,0.100830324,0.09301292,0.09650805,0.26045942,0.21291968,0.21989124,0.13131294,0.053071268,0.18791112,0.09208818,0.029161869,0.07189373,0.029318389,0.11697575,-0.06033552,0.20546958,-0.20974153,-0.09915226,-0.034526527,-0.09760286,-0.14631912,-0.06230573,0.010089932,-0.17323762,-0.07965887,-0.02906303,-0.024360148,-0.063225314,-0.061278474,-0.036471907,-0.09595574,0.015360394,0.041057914,-0.0703959,-0.17135568,-0.058468625,-0.10585703,-0.10131217,-0.03086847,0.054164797,0.028143317,-0.14384168,0.045325283,-0.05307711,-0.1372212,-0.16079894,-0.17568429,0.03902256,-0.10224446,-0.033531073,-0.03859672,-0.10936086,-0.08644955,-0.013346975,0.014395417,0.0699698,-0.07704669,-0.16260436,-0.0953739,-0.22228724,-0.12224813,-0.06998962,-0.056046,-0.061619308,0.047102787,-0.20362346,-0.037260473,-0.08210613,-0.08257073,0.012541058,-0.04372829,-0.20023859,-0.14722663,-0.113312885,-0.075112544,-0.038942013,-0.049790602,-0.16782686,-0.08763892,-0.09069153,0.12149412,0.12536195,0.00023625162,0.04752991,-0.02828268,-0.011957662,0.10109363,0.080491535,-0.013187793,0.037169445,0.16190964,0.0058348025,0.12532677,0.083562516,0.14974399,-0.07272638,0.19660103,-0.019025898,0.105177544,0.10731929,-0.11609771,0.046245836,-0.0546873,0.0344185,-0.12798765,0.120843396,0.17290178,0.093913086,-0.0760602,-0.02146981,0.33191523,0.13466685,0.22251052,0.004026807,-0.15634927,0.11268017,-0.0058558364,0.08963821,0.04681876,-0.07740964,0.107618235,0.160628,0.118250206,-0.096716344,0.15805489,-0.1180056,0.050445687,0.008824021,0.10170584,-0.024137687,0.048879374,-0.12812144,0.0017254387,0.027529001,0.2280035,0.16383481,-0.11769313,-0.00038120884,0.06409283,0.15765123,0.0632606,0.17447089,0.26423186,0.057306316,0.21297687,0.08455666,0.099697866,0.042483248,0.35647464,0.18096645,0.009409825,-0.30669522,0.16385932,-0.12035658,-0.0067361165,-0.09322329,0.16900249,0.08848023,-0.38187632,0.040459227,0.17271462,0.12197844,-0.07360762,0.102272965,-0.08533766,-0.17062949,-0.08636017,-0.06968689,-0.049150214,0.1116532,0.011672517,-0.027030014,0.0532733,0.16316305,0.28802738,-0.03582371,0.10049625,0.15555464,0.12503159,-0.050355952,0.21743596,0.016199596,0.052634504,0.08096579,0.19473979,0.016466154,-0.060266867,0.0709015,0.16721839,0.14779048,-0.11031092,0.17595924,-0.010538706,0.18199795,0.27298087,0.19407453,0.10159487,0.06997224,-0.08717345,-0.027746402,-0.058721233,-0.09719553,-0.10780966,-0.07372854,-0.019732423,0.11323586,-0.23841865,0.041330732,0.16114771,-0.024973048,0.046129912,0.23935932,0.21482109,0.061577827,0.050944168,-0.06612953,0.09154418,0.03931783,-0.005988717,0.085462555,0.091496035,0.06175846,0.11452258,0.16081953,0.025806341,0.18545166,0.044187047,0.21405903,0.17336445,0.15199678,0.011120653,-0.005251897,0.13682787,0.19957897,0.090519816,-0.016549092,0.071041696,0.0870857,0.25045055,-0.0107113905,-0.026987271,0.08707475,0.1418285,-0.03498516,0.0761635,0.026730089,0.021735158,0.10001049,0.0317571,0.2762136,-0.030347185,0.15256305,-0.1024366,0.19416991,0.23696502,-0.051714804,0.035672944,0.16891481,-0.037478544,0.21570694,0.12126553,0.17358401,-0.033025388,0.09560882,0.2001057,0.0062213903,0.057599977,0.024022657,0.046069525,0.16793025,-0.08750703,0.27174678,-0.102552496,-0.12614857,-0.050813157,-0.22537781,-0.13603267,-0.13487782,0.025431288,-0.05550157,-0.12166378,0.014679536,-0.09895386,-0.03722602,-0.049399566,-0.118887715,-0.19301942,-0.05040105,-0.099520944,-0.1554605,-0.24441089,-0.05992764,-0.10798395,-0.09935524,-0.034208097,0.052530877,0.06643448,-0.21425875,0.062463894,-0.024948709,-0.08302068,-0.15147036,-0.11175823,0.038341418,-0.0005818391,-0.07277681,-0.048586395,-0.061371725,-0.22264005,0.06381374,-0.023630593,-0.016843762,-0.039602198,-0.15183918,0.052611444,-0.093701124,-0.0736458,-0.12252438,-0.0929997,-0.044103354,0.058538485,-0.166429,0.034305584,-0.12884656,-0.13320838,-0.101840384,-0.0438234,-0.19303136,-0.17884022,-0.13079117,-0.07414027,0.08148596,-0.044754364,-0.08778013,-0.021885687,-0.16186862,-0.009762942,0.12718497,-0.07214616,-0.016536491,0.06537488,-0.016318234,0.15650932,0.022050206,-0.21058698,0.033685904,0.10110578,0.052617673,0.100516535,-0.04763862,0.20497938,-0.038845405,0.15237483,-0.038223162,0.13642743,0.025991809,-0.17826295,-0.070594855,0.007479043,-0.008527878,-0.10308157,0.025221461,0.032917283,0.22579482,-4.9658294e-05,0.036686826,0.2240717,0.09561776,0.14335524,-0.045497067,-0.21691997,0.030751087,-0.04355544,0.21064769,-0.004782275,-0.08382053,0.1443496,0.103758655,0.040538996,-0.12510023,0.04909351,-0.067720115,0.031407226,-0.06629288,0.118601054,0.049036413,0.046793927,-0.10669432,-0.0025416971,0.1307288,0.16416806,0.16261354,0.01956673,0.0686647,0.115607664,0.16503598,0.03429531,0.039439384,0.18743077,0.038479846,0.29198024,0.04580334,0.1823001,-0.03218978,0.23182644,0.11037963,0.09442012,-0.13878062,-0.014074263,-0.15449762,-0.047035236,-0.12698491,0.113806374,0.22043009,-0.24533598,-0.05315258,0.17496727,0.12242351,0.004881253,0.18613549,-0.11144762,-0.050792612,0.03132307,0.09516556,0.009650681,0.15443064,-0.06657777,0.040026344,0.1367002,0.19346258,0.24617101,-0.00137642,0.15455876,0.1686311,0.14335789,-0.09372592,-0.01977599,0.0370303,0.036849327,0.17837128,0.06470311,0.10776263,0.016152559,0.11263633,0.12136755,0.18665269,-0.021329664,0.039228134,0.07292649,0.13610977,0.14963958,0.17369159,0.08542455,0.14355776,-0.092512906,-0.13477626,0.02641314,-0.013223939,-0.09597077,0.002407511,-0.17621815,0.015340407,-0.25104877,0.01660082,0.13816427,-0.030942494,0.037864473,0.12662034,0.08856989,0.06728088,-0.0042739664,0.020303102,0.15522671,0.08513437,0.0058330204,-0.011849466,0.16358012,0.1772302,0.23356074,0.2966562,0.083219856,0.07862722,0.03187801,0.13698712,-0.041955028,0.24729104,0.01341722,0.027413411,0.1539462,0.23465388,0.16913633,0.02172168,0.17706768,0.079323724,0.11882831,-0.09824708,0.043814454,0.100195,0.11456296,0.025443088,0.1614443,-0.06996819,0.015700731,0.17660849,0.028617648,0.15468661,0.044759355,0.010556622,-0.0382518,0.18624336,0.10887994,-0.0008710488,0.15796164,0.22360878,-0.012356117,0.17979014,0.14683802,0.16884542,0.016893178,0.07797157,0.10831598,-0.023523234,0.11681788,0.0125231575,-0.047686435,0.07908764,-0.022138158,0.22187822,-0.13627042,-0.09983752,-0.072255954,-0.20461588,-0.0699731,-0.06698575,0.06933111,-0.08279014,-0.09577525,-0.07372885,-0.03495449,0.026675789,-0.076990776,-0.07388677,-0.07626897,0.017087158,-0.114776336,-0.06497077,-0.12389085,-0.016998788,-0.036802735,-0.13190222,-0.019545266,-0.0020573214,0.0643897,-0.24295883,-0.067152485,-0.07552263,-0.10179633,-0.15833983,-0.1444182,0.038685806,-0.037140723,-0.15752062,-0.03523965,-0.029033009,-0.17941073,0.014253516,0.1260147,-0.08494412,-0.10785752,-0.23418038,-0.10520723,-0.13679811,-0.047746252,-0.06460755,-0.06724291,-0.07474112,0.022720443,-0.03860688,-0.069016494,-0.11600919,-0.14563541,-0.00883096,-0.16605833,-0.23371886,-0.15501028,-0.12180731,-0.15287371,-0.11029096,-0.13783813,-0.1514813,0.009128483,-0.11454574,0.05929909,0.202719,-0.0073568644,0.04831914,-0.07526707,-0.11783975,0.14792755,0.06428101,-0.08012789,0.014993916,0.17673573,0.107788265,0.13628991,0.13788775,0.13110186,-0.05560753,0.20958285,-0.11041383,0.0057303393,0.13030483,-0.1589843,-0.07003151,-0.054311484,0.025093917,-0.10445692,0.029896257,0.15191837,0.1921561,-0.0334993,-0.014655838,0.33736944,0.16848642,0.26546493,-0.005112921,-0.12663765,0.13430804,-0.0051924046,0.15971453,0.07496031,-0.09389257,0.15900512,0.15191811,0.10383334,-0.016454576,0.045907978,0.023578798,0.13847046,-0.13258398,0.066564426,0.08138776,0.010777024,-0.012516194,-0.0987855,0.13539852,0.22091487,0.026589528,-0.054536376,0.08252083,0.18403095,0.14841904,0.06592739,0.034890983,0.21360981,0.13529345,0.39495787,0.08544451,0.079188816,0.043726705,0.3519171,0.21442571,0.07461145,-0.16867355,-0.0151938675,-0.07303968,-0.020814808,-0.13194776,0.060639095,0.12524134,-0.25726074,0.1376868,0.12739512,0.11647802,0.04719879,0.123765394,-0.05849321,-0.17740497,0.018095337,0.038259685,-0.06308138,0.20245363,-0.027492182,-0.022145223,0.16137108,0.16856118,0.17712763,-0.18418826,0.15334079,0.050789133,0.12934753,-0.10636374,0.18004757,0.06264858,-0.035679493,0.11477757,0.099347696,0.10103355,-0.0030042075,0.13918777,0.16288598,0.17817645,-0.04710311,0.10876211,0.023740672,0.16795349,0.14136937,0.1503591,0.03070277,0.037377827,-0.1778327,-0.027115768,-0.0855536,-0.06740001,-0.09823126,0.011343,-0.108078256,0.10283099,-0.16845766,0.023033734,0.15004037,0.13491385,0.04676562,0.22454575,0.025005827,-0.0016646303,0.007745301,0.10466869,0.028152691,0.1085629,0.06685321,-0.022402355,0.036988832,0.13877186,0.14399904,0.21548292,0.16809025,0.20179063,0.1609462,0.12855604,0.0674892,0.11767024,0.07128578,-0.0018962685,0.15553872,0.30893224,0.010924869,0.004696484,0.027086394,0.072245225,0.2895483,0.0097030215,-0.04782947,0.080669664,0.09360465,-0.0062836315,0.16727829,-0.10910102,0.055261403,0.17629455,-0.040288895,0.18450372,0.033056848,0.09593596,-0.00559523,0.10715454,0.1289688,-0.11826549,0.09820743,0.21002974,0.078116514,0.2013843,0.14472817,0.09483785,0.0071895844,-0.013817143,0.16568409,0.030767947,0.021417232,0.079142645,0.043226987,0.116942614,0.12895788,0.14565217,-0.19161548,-0.06487348,0.01713962,-0.081638284,-0.09580275,0.046871923,-0.021609535,-0.0862602,-0.105181485,-0.15894498,-0.049713686,0.04232243,0.022332903,-0.020526977,-0.12962674,0.05164577,0.056611616,-0.1795551,-0.15247631,0.024825634,-0.01080136,-0.19946635,-0.057589315,-0.022430109,0.02529179,-0.18983856,-0.039492805,-0.1063817,-0.12439456,-0.19605461,-0.17357509,0.009176129,-0.06998259,-0.070664,-0.05654879,-0.09893477,-0.12333289,0.020347742,0.09004815,-0.03852702,-0.020742673,-0.28519356,-0.015358257,-0.15313327,-0.038955446,-0.11786483,-0.100187264,-0.14217643,0.051893942,-0.20695095,-0.09045786,-0.19236167,-0.12450194,-0.0148175685,-0.13995615,-0.15473525,-0.13965768,-0.14879392,-0.07734565,-0.068838835,-0.1315319,-0.1350097,-0.016572962,-0.12179492,0.045131158,0.15356126,0.01603876,0.025561603,-0.026843455,-0.18457946,0.11279092,-0.060971808,0.07979361,-0.060158364,0.12554295,-0.0945332,0.16185151,0.14325282,0.10212824,-0.05706098,0.1824811,-0.06320929,0.09535513,0.05332432,-0.21122122,-0.06324315,-0.0072779064,-0.025007937,-0.08545782,0.042574573,0.07865633,0.18687141,0.023882357,0.0021628807,0.22642449,0.080020584,0.1609119,-0.030443521,-0.22663988,0.3212828,0.01975421,0.14257123,0.019716201,0.04874093,0.1942828,0.05073623,0.1370848,-0.09479975,-0.062747516,-0.0618436,0.05581142,-0.23946956,-0.019536894,-0.008403711,0.07069788,-0.0956906,-0.097105734,0.02505938,0.3436106,0.15190923,0.03254613,0.0695718,0.1290816,0.073321134,0.03102322,0.004328065,0.1734686,0.013747938,0.10592415,0.0899913,0.11503236,0.057647493,0.260846,0.11834605,0.08676947,-0.13861229,0.17943199,-0.20257708,0.010392774,-0.10322607,0.15710132,0.18363567,-0.37934327,0.115429394,0.19091213,0.08457332,-0.03114275,-0.036599986,-0.03903659,-0.06876828,-0.07268352,-0.0269808,0.050706044,0.12876448,-0.032049306,0.04078701,0.084424995,0.17615432,0.1697126,-0.079338275,0.23603317,0.19937442,0.12966767,-0.09245817,0.25025338,-0.14079745,0.0062945504,0.094735004,0.112287566,-0.032317124,0.07895229,0.11516358,0.17061388,0.17562889,-0.08134106,0.16684179,0.023286462,0.06338052,0.10675596,0.08744447,0.033987254,0.15822665,-0.038828347,-0.17981336,-0.02505551,-0.024606464,-0.027882077,-0.12886524,-0.15445079,0.1316493,-0.2462804,0.12596335,0.15262732,-0.0028797954,0.08680803,0.2069817,0.08512899,0.09023836,0.014005183,0.08490026,0.12518546,0.025020313,-0.040863726,-0.055485304,0.034331497,0.100577325,0.09897452,0.16674295,0.12712732,0.123046026,0.058627695,0.17927587,0.027407425,0.14568204,0.031451937,-0.08743026,0.122785084,0.1828137,0.15935494,0.016426511,0.11764399,0.095106535,0.2640196,-0.02283644,0.007104348,0.119068675,0.09483397,-0.056828633,0.15592688,-0.14955796,-0.013031406,0.056829587,0.086551,0.2793047,0.089996584,0.021264222,-0.032104675,0.15325968,0.1477707,-0.16411027,-0.016421366,0.12985036,0.059704576,0.14827976,0.07560171,0.16834384,-0.03588595,0.027339257,0.18176572,0.00735774,0.056709647,0.0326568,-0.04109685,0.00767213,-0.053589836,0.08261115,-0.18807772,-0.12855521,-0.17007256,-0.15388454,-0.09348229,-0.0049036485,0.037953153,-0.05029549,-0.13545859,-0.020837015,-0.030725023,-0.016095676,-0.0028795763,-0.11302026,-0.16987193,0.048643306,-0.112021774,-0.14160891,-0.20020525,-0.06806219,-0.059336033,-0.07883226,-0.057000842,0.045468923,0.010764432,-0.24752733,-0.04998572,-0.08585908,-0.08503868,-0.25163287,-0.1167545,-0.01162178,-0.067049526,-0.095564455,-0.048678376,-0.10796868,-0.09582132,0.013836099,0.13810985,-0.13024884,-0.17249787,-0.20126244,-0.017688219,-0.2088241,0.043900173,-0.1285401,-0.09645869,0.015846865,0.008898706,-0.21525258,-0.097054385,-0.058586296,-0.12660922,-0.0747169,-0.04353665,-0.14967632,-0.21509127,-0.0896047,-0.025880931,-0.018428931,-0.10921704,-0.1165889,0.04927592,-0.1560016,-0.0073438603,0.13290256,0.012611298,-0.046399906,-0.07375606,-0.06462325,0.18861869,0.01716021,-0.11302518,0.000719052,0.13245659,0.06836693,0.21732734,0.10142146,0.25084156,-0.05624225,0.26251456,0.041393217,0.06872699,0.15302454,-0.19160081,-0.022515384,-0.003901754,-0.09742021,-0.09020037,-0.10828978,0.06883289,0.16590792,0.025524233,-0.026119012,0.20687704,0.21597494,0.17363875,0.009213497,-0.11592847,0.14570624,-0.007003048,0.15192525,-0.0018446757,-0.0186375,0.31307444,0.06593472,0.04132502,-0.09479161,0.019058313,-0.0317639,0.060247608,-0.08783933,-0.05233063,-0.021539431,0.046476085,-0.1711037,-0.13164042,-0.009905153,0.2917566,0.081182525,-0.0047195964,0.076240584,0.17602424,0.032084584,0.06461571,0.06189516,0.23969756,0.053386264,0.11140734,0.05004993,-0.039491404,0.07572058,0.21513249,-0.008290761,0.18769294,-0.23186848,0.07567832,-0.20279135,-0.014279541,-0.15595402,0.17497046,0.2684166,-0.36763987,0.054745894,0.18910195,0.06634124,-0.013199959,0.14786512,-0.14685138,-0.057946555,-0.039270505,-0.06477177,-0.17903538,0.09828339,-0.113730215,0.090869315,0.122747175,0.23521346,0.39685747,-0.051377486,0.15239944,-0.0149504,0.035537552,-0.059330516,0.14441946,0.07016238,0.07009517,0.1464017,0.011732699,0.07065522,0.016291954,0.11344585,0.09352538,0.19240166,0.02796577,0.09776241,-0.016239243,0.14454642,0.13882016,0.32209617,0.04281234,0.14884254,0.012326292,-0.10448227,0.12202036,0.09034749,0.07008172,-0.16725443,-0.19291167,0.07273269,-0.2999693,-0.05641224,0.081342585,0.023984497,0.079213925,0.18209887,0.07006198,0.108402036,-0.01813319,0.019530587,0.01968896,0.14806807,0.12069452,0.05644559,0.17093681,0.097213134,0.18192273,0.20635065,0.16720074,0.07712751,0.12650783,0.16616876,-0.015288135,0.14366664,0.036076672,-0.011727367,0.14780147,0.19469485,0.09976035,-0.0009528823,0.057186827,0.023284214,0.12690678,-0.08528422,-0.037497424,0.082700595,0.09600659,-0.02258668,0.20914225,0.016891124,-0.11745606,0.030381428,0.07933497,0.1427001,0.0474146,0.048061036,0.041206464,0.08079543,0.16090487,-0.06428397,0.057596575,0.13682379,0.066752635,0.31888923,0.13104017,0.052502364,-0.06695734,-0.02392918,0.2103587,-0.018058095,-0.08539,0.0077369595,-0.06128209,0.10665656,-0.05086684,0.22306839,-0.21148579,-0.06252772,0.01611409,-0.10489636,-0.16044079,-0.10428537,0.16321754,0.0028291491,-0.090048686,-0.064615674,0.078130476,0.044073716,-0.048556928,-0.06233263,-0.17443441,-0.06101881,-0.0055051744,-0.10753687,-0.16989374,-0.038680837,-0.107169114,-0.1648272,0.027921313,-0.0434859,0.07775966,-0.24883331,-0.06747711,-0.101336285,-0.1482538,-0.15600401,-0.040542345,0.1047825,-0.055562105,-0.10715422,-0.053304806,-0.024404597,-0.08065056,0.00075227325,-0.013064803,-0.081299804,-0.09226899,-0.20186055,-0.0065966467,-0.05206504,-0.112623245,-0.1127786,-0.06744179,-0.13199514,-0.010826854,-0.22122648,-0.0034612045,-0.12328534,-0.12042872,-0.09465916,-0.05543192,-0.2624001,-0.12592342,0.002004183,-0.12332801,-0.16023579,-0.022122078,-0.08595686,-0.00879897,-0.15527609,0.081021,0.16436906,0.07245168,-0.00301089,-0.010133846,0.030694555,0.113287,-0.017956031,-0.06599321,0.047768556,0.08420333,0.057097226,0.15124896,-0.019679844,0.124255136,0.017008975,0.1910002,-0.03690657,0.019385954,0.1512647,-0.20323847,0.07287439,-0.06971411,-0.018055853,0.026583226,-0.05998759,0.1332002,0.11926615,-0.033279266,-0.01829442,0.21384434,0.11599819,0.19041999,0.06812823,-0.1179903,0.12889934,0.009416851,0.26059145,-0.00079164765,0.040144015,0.12164193,0.14430115,0.052358605,0.051169164,0.073375724,-0.02725566,0.038082715,-0.002643621,0.07679922,0.053224046,0.052867223,-0.12814116,-0.04349237,0.028291296,0.18953654,0.17983569,-0.0016927377,0.024666259,0.15715747,0.15757436,0.08557889,-0.033430777,0.20583035,0.12463913,0.09157097,0.09392002,0.07826808,0.029295055,0.4481521,0.12670434,0.0608039,-0.19800076,-0.017684273,-0.117681205,0.013049238,-0.15545186,0.11690658,0.29210994,-0.12207397,0.09693621,0.10413751,0.08471845,-0.002183683,0.010222031,-0.067923196,-0.08765769,0.070707574,0.008268687,-0.020924026,0.19135661,-0.08511164,0.020546611,0.07927969,0.20706116,0.28316045,-0.01906976,0.120883666,0.023314426,0.15613154,-0.029082911,0.1310553,0.02473002,0.10792042,0.11192127,0.19674724,0.015027371,0.13619892,0.21765131,0.0066741602,0.23221275,0.10469841,-0.0008312802,-0.032818425,0.05847928,0.20083776,0.04659215,-0.052264113,-0.014719758,0.042851582,-0.08946772,0.004921703,-0.023331253,0.024381023,-0.053900477,-0.1570685,0.17361017,-0.08283962,0.05791891,0.12852958,0.015769003,0.12278398,0.10584869,0.06303097,0.05303023,0.04600269,-0.08532334,0.10193303,0.15488628,0.017678045,-0.007840903,0.16912846,0.088263966,0.1830932,0.11422743,0.20081271,0.14726156,0.017427128,0.16400471,0.06863736,0.16844463,0.09256995,0.006657701,0.2180552,0.24365641,0.19843583,0.04431994,0.094454855,0.115384325,0.06244289,-0.035068586,-0.0007384282,0.080886476,0.12761495,-0.033621464,0.106295094,-0.047937237,-0.025471628,0.006980029,0.07153025,0.12185083,-0.09631745,0.07456424,0.014199139,0.15163857,0.14327525,0.027998922,0.06394109,0.20455234,0.0010494776,0.21602233,0.17289366,0.13829608,-0.005780931,-0.037719164,0.25030518,-0.015438284,0.025939347,0.093764,0.021379387,0.02070273,-0.055858072,0.20349574,-0.19917178,-0.08696303,-0.040964708,-0.16018046,-0.084954895,-0.036286242,0.0032690405,-0.023228206,-0.045757316,-0.0078482,-0.02176938,-0.070416115,-0.046892893,0.036161788,-0.13830477,0.016325265,-0.05873494,-0.23162505,-0.18496138,-0.08807354,-0.09427986,-0.06625958,0.076794796,-0.045245647,-0.027301809,-0.17635964,-0.16155402,0.019152608,-0.21972734,-0.19859552,-0.08552051,0.020432403,-0.08666954,-0.15474378,-0.06957164,-0.089228556,-0.15516718,0.036476053,-0.041039117,0.009937471,-0.020455027,-0.27611634,0.006850824,-0.16796783,-0.08420668,-0.17181458,-0.057131454,0.032812234,0.02840962,-0.2071541,-0.11690849,-0.019101594,-0.025417952,-0.11590517,0.0032859703,-0.025519948,-0.24051814,0.05773592,-0.04811699,-0.0014426103,-0.18589514,0.04314482,-0.02205505,-0.22117713,0.06508484,0.16291732,0.088409595,-0.023891443,0.03695616,-0.09576296,0.11905946,-0.049495723,-0.066567965,0.0743273,0.082512945,-0.0127771655,0.14210017,0.21375647,0.09051019,-0.0052903933,0.3038189,-0.016449315,-0.010342766,0.11805312,-0.09727315,-0.10127502,0.06628457,0.09304423,0.0060976404,0.041689914,0.14129487,0.15875028,0.04790804,0.03322777,0.18336608,0.09982949,0.13374352,-0.012678118,-0.12832119,0.037497796,0.079720505,0.17914404,-0.0019235819,-0.18595524,0.17671734,0.15701817,-0.018312689,-0.018101215,0.17800039,-0.09978628,-0.042796273,-0.033391967,0.037470505,0.010165544,0.050155565,-0.136535,-0.16713123,0.061203178,0.17568967,0.020335013,-0.07888866,0.006922785,0.15320233,0.09063621,0.11524093,-0.22389247,0.099469185,0.2526604,0.28634852,0.014965055,0.11869448,-0.13814124,0.39888433,0.1722046,0.02458311,-0.1807149,-0.056111563,-0.11720998,-0.021647606,-0.016112562,0.051966313,0.12418418,-0.16097394,0.14455195,0.0943989,0.0863227,-0.023988072,-0.005315222,-0.16845027,-0.068401456,-0.26702258,-0.14852473,0.08549094,0.16165604,-0.14732061,0.121216856,0.015909156,0.17305243,0.30394304,-0.0966809,0.23306714,-0.02577365,0.17000075,-0.0027563537,0.102282204,0.06750616,-0.036188144,0.1430793,0.35564706,0.0045339027,0.2764221,0.19296668,0.13973159,0.26940417,0.23270515,0.18209323,-0.010282692,0.21094488,0.1946442,0.15311633,0.12526245,-0.09546268,-0.12420253,0.056140576,0.090764016,0.1217759,-0.025110481,-0.028659184,0.008643344,0.32131395,0.032218914,-0.12996267,0.15442882,0.14250357,0.056152485,0.22817032,-0.021402506,0.06759333,0.1234614,-0.087544456,0.18109658,0.10508928,-0.060800564,0.066647775,0.14716102,0.13781144,0.11133281,0.17614195,0.14842919,0.24704224,0.068866834,0.24561667,0.032818675,0.07273991,0.17329143,0.08599125,0.19321421,0.24403018,0.21597357,-0.08236859,0.24049093,0.17557786,0.0036201703,-0.10465745,-0.05077829,0.117209345,0.1378772,-0.036398828,0.049888737,-0.09306522,-0.00028106078,0.1060871,0.054426912,0.21214862,-0.19244568,0.10627048,-0.014053788,0.014502531,0.034154803,-0.0069872933,0.04686816,0.09822414,0.042038415,0.25977784,0.10960785,0.21636614,0.020315746,0.03361078,0.27879667,-0.07490061,0.020610021,0.030384777,-0.057208743,-0.23488258,-0.085375525,0.43801776,-0.14808005,-0.19283795,-0.16986966,-0.1812187,-0.044560406,-0.114646554,0.0020186834,0.04287008,-0.1445243,-0.010618452,-0.0038014562,0.017510723,-0.08709887,-0.034067456,-0.0077468054,0.016241068,-0.14523746,-0.15405887,-0.2308583,-0.069266446,-0.033526164,-0.18771137,-0.10854451,-0.013259844,-0.1495361,-0.32127866,-0.030059211,0.0031106337,-0.27997395,-0.16615663,-0.06717262,0.0026778323,-0.08543014,-0.07386782,-0.01726668,-0.0453954,-0.20709203,-0.00021931704,0.08466502,-0.02802268,-0.014940821,-0.29811218,0.1408584,-0.19410077,-0.078190476,0.09746118,0.14744319,-0.0913281,-0.076108254,-0.19251373,-0.085299335,-0.07976161,-0.0014023472,-0.115028344,-0.05317992,-0.17331402,-0.29591227,0.17021151,-0.10898502,-0.055401914,0.00052145397,0.22232543,0.10193282,-0.39298162,0.027495591,0.27695477,0.1429555,0.04223373,-0.16832843,-0.19447455,0.10034477,-0.040388383,-0.04384631,0.018703997,0.24034065,-0.045726888,0.26429978,0.10979644,0.004220675,-0.06823877,0.26335737,0.14003764,-0.029193932,0.0109352255,-0.10373074,0.06580517,0.21445808,0.09698213,-0.013248278,0.10948388,0.19687122,5.067488e-05,0.26283973,0.04605442,0.13796107,0.080659874,0.08154461,0.22214252,-0.1740999,0.13552865,0.054449584,0.09031498,0.20609874,-0.10927942,0.063804746,0.16808785,-0.089730166,-0.12266611,0.015444231,-0.2454206,-0.23645632,-0.11546076,0.020513026,-0.029431468,0.039898854,-0.13620992,-0.17455877,0.2804101,0.18654417,-0.0011584663,-0.07688035,-0.22885612,0.044378728,0.13579892,0.1558371,-0.30841357,-0.0020420225,0.36618632,0.2158099,-0.025720928,0.07185156,-0.022908611,0.52321273,0.07440254,-0.029984102,0.080380134,-0.11068658,-0.05914592,-0.2652011,-0.056925442,0.035767443,0.029410105,-0.084989674,0.089669675,-0.039743554,-0.071281105,-0.07272637,-0.11659485,-0.09081248,-0.13818294,-0.10553493,-0.07838231,-0.13990422,0.0834025,-0.046920992,0.11927595,-0.081884116,0.01378406,0.27802542,0.10795362,0.1412031,0.08273974,0.29995123,-0.11808761,0.114024736,-0.04393368,-0.031113219,0.11089598,0.08595078,0.094118096,0.24781632,0.2840688,0.04646224,0.34785452,0.42983484,-0.01937564,-0.0731773,0.1826802,-0.06610589,0.28360316,0.13668416,-0.22625417,-0.082110696,-0.05781599,0.046489608,0.18338989,-0.10001548,-0.0053333463,-0.0627292,0.30501336,0.008339526,-0.42669642,0.14836591,0.12079218,0.10575338,0.1434411,-0.058561202,0.18510275,0.023780841,-0.1792825,0.24726066,0.054805692,-0.002571447,-0.03430132,0.17094456,0.2473521,0.00804626,0.17381392,0.1658222,0.39322132,0.104380034,0.1765185,0.12859286,0.22335055,0.30523235,0.052216433,0.17582436,0.35338613,0.17764267,-0.029703662,0.31402156,0.14988345,-0.03729657,0.0059478707,-0.059309073,0.23264451,-0.0081568705,-0.01656668,0.057681795,-0.040519983,0.044094212,0.14523119,-0.017243838,0.03542112,-0.13289763,0.011559594,0.0037090085,0.033867273,-0.27954763,-0.048953075,0.11442508,0.060885455,0.086176895,0.18309653,0.08354973,0.4283042,0.014157888,-0.018109532,0.18867439,-0.23633629,-0.010619993,0.06571835,0.025129769,-0.3981304,-0.22445127,0.48488978,-0.1424178,-0.15921076,-0.23833245,-0.09852299,-0.07185388,-0.027858313,-0.0743116,0.023352403,-0.09324648,-0.07736194,-0.04036325,-0.07555833,-0.08336048,-0.02344237,0.056685355,0.010252415,-0.13189988,-0.23303784,-0.24751395,-0.071873665,-0.005150105,-0.2240303,-0.14265735,0.025074914,-0.06184092,-0.30877697,-0.18564731,0.13121942,-0.28747258,-0.15344237,-0.0037936887,-0.041072644,-0.10798201,-0.20855522,0.007127461,-0.13944136,-0.23209247,0.033412095,-0.05300878,-0.0038427748,0.078787856,-0.22700183,-0.06298739,-0.13392599,-0.04832559,0.011567333,0.41533527,-0.15586518,0.022928411,-0.021475198,0.0065016476,0.03389988,-0.0011292216,-0.18731378,-0.18090206,-0.12305594,-0.17562644,0.24533167,-0.028900217,-0.10996129,-0.015603638,0.25702572,0.11051899,-0.41590825,0.059808504,0.28163344,-0.0044449545,0.10494593,-0.23699702,-0.09046844,0.2228722,-0.070838995,-0.080619246,0.14340803,0.32725775,0.12201081,0.31933728,0.20783293,0.017133953,-0.07403703,0.23825294,0.27614185,0.06267705,0.17231424,-0.3392657,-0.0462577,0.2657342,-0.08569405,-0.07920622,0.105728306,0.10937128,-0.17468898,0.24161443,0.09709649,0.20265344,0.22828963,0.13829444,0.1887957,-0.37626392,0.23231877,0.017383976,0.12635261,0.1877306,-0.035481263,-0.008307519,-0.009335136,0.0865527,-0.063759044,0.07839306,-0.20964295,-0.60058665,0.039842263,0.029962726,-0.21445905,-0.059621364,-0.26731262,-0.14031908,0.35549444,0.3118173,-0.09761202,-0.08537345,-0.008791053,0.24643661,0.13830853,-0.0077895257,-0.37225315,-0.002773259,0.19848494,0.18615161,-0.12559284,-0.024648683,0.086338766,0.5820529,0.16970614,0.15974876,-0.25090012,0.28610298,0.086477205,-0.4934012,-0.2259987,0.07832014,0.235039,-0.044523105,0.26192823,0.03210254,-0.15189342,-0.10022868,-0.12617388,0.4900559,-0.019874582,-0.09298269,0.34219363,-0.0447055,0.00038686622,-0.040083583,0.37542495,-0.06255694,0.13424546,-0.1750096,-0.057801567,0.10030444,0.04132351,0.4556837,-0.3390447,0.030999398,-0.06882424,-0.08353816,0.08696398,0.27134797,0.15213114,-0.40557224,0.22557525,-0.00020265255,0.29416394,0.6748325,-0.15484948,0.05429406,0.47735795,-0.05413752,0.24256782,0.08950792,-0.107073955,-0.40826824,-0.09024035,-0.13459018,-0.10495555,-0.18558891,-0.12168514,-0.017417736,-0.024048299,-0.10097926,0.24437284,0.11439554,0.1608239,0.04889732,0.22285417,0.03778011,0.028095745,-0.026552692,-0.015849607,0.01724693,0.017749794,-0.027229754,0.086670294,0.069565825,0.061898347,0.07362948,0.14269146,0.20926058,0.42546228,0.07471969,0.19711673,-0.096142255,0.102527946,0.41849694,-0.08362171,0.16669168,0.36782277,0.25036904,-0.16877533,0.43594244,0.10770783,0.074143305,0.08118535,-0.03220951,0.24483536,-0.05338622,0.09242664,0.14168586,-0.08364783,0.05041925,0.046486393,-0.17998175,0.028291954,0.05111448,0.11656245,0.010238964,0.072952226,-0.5435698,-0.009466725,0.06549335,0.15094383,0.16270447,0.17588127,-0.012161462,0.47061116,0.13427562,-0.049883086,0.25319907,-0.20302625,0.12233367,